100 100
TATTTTTAAAAAATTCTAAGTGTGTTTTTTATGGATTAGAATTCTAATCCAAACAGATTTGTCTTAATTCCAGCTAAGACAATGATCTACACTAAAGGTTA 0.001126685 0.004979504 -0.0019595549 0.0016940004 -0.00028500543 -0.0021891287 -0.0025591683 0.0043377955 -0.0017469417 -0.0038473655 0.0013727474 -0.0015080218 0.0021006477 2.9857425e-05 -0.003030019 -0.0047038943 -0.0009652582 -2.3749082e-05 -0.004275028 -0.0033510262 0.00060776185 -0.004707823 0.0009391123 0.00018089471 -0.0044421786 0.0022633504 0.004878461 0.0017400802 0.00076329225 -0.00083714933 -0.00061070616 0.0026703812 -0.0012506365 0.0012085413 0.002525177 -0.0013182131 0.000738007 0.0030469894 0.0024278425 -0.004329505 -0.0023531583 -0.0005130353 -0.0010929878 -0.0046113976 -0.0003770931 0.0037489405 0.00041714185 -0.0014169042 -0.004888536 0.0004899942 -0.0046371603 -0.002465361 -0.0009885231 0.0019579446 -0.003720458 0.0024137278 -0.00047380535 -0.00070441485 -0.0022263282 0.0005922494 0.0048522823 0.00043650393 -0.0024536059 -0.003585915 -0.0029259783 0.00041411392 0.0013872202 -0.004378583 0.0037386047 -0.0009282037 0.004346318 0.0013899383 0.0023597514 -0.00040907005 -0.0011844967 -0.0003098018 0.00073427823 0.003401403 -0.00046996627 0.0010269085 0.0026721999 0.00017460537 0.0045831213 0.001578914 -0.00021655478 0.0018257325 0.00226174 0.0031049252 -0.0028439206 0.0019291713 -0.0024916974 -0.0007598265 0.0014594513 -0.0024782533 -0.0017075279 -0.0026797443 0.0017336599 0.0049901283 -0.001923566 0.00044702395
GAGAATGAGATGAGTAAGCAGACAGAAGCAATAATCAGAGATTCAGAGAAGTACAAGAGAAAAGCTCGGTGCATGTGTGGGGAGGGAGACGACAAAGCCAC 0.0015199628 0.00045870143 -0.0042815804 0.0007633085 -5.1965297e-05 -0.0042136055 0.0019132079 -0.0014590065 -0.0030681419 0.0013439739 -0.0012378095 0.00070953945 0.004982126 0.0015431207 -0.001971659 -0.0009694602 -0.0003378394 -0.0027633382 -0.0016612236 -0.00034634533 0.0030701926 -0.0023858817 0.0006372637 0.00034934207 -0.00072375237 0.004817052 -0.0014223214 0.0021529947 0.0010273298 0.003950034 -0.0019046678 -0.00069884607 -0.000863456 -0.00094883214 -0.0035501926 -0.004642998 -0.00012552655 0.0009559939 0.000103500606 0.0020199253 0.00279801 0.0009677031 -0.0028262688 -0.00043846582 0.004383463 0.0019005325 -0.0034906396 -0.0018555024 -0.0026592677 0.0049593425 -0.0010692439 0.0005416837 0.0023329197 -0.001162138 0.0007558368 -0.0036002207 0.0029250493 0.0029615867 -0.0010846258 -0.00047304595 9.545891e-05 -0.0020861344 -0.0016671121 -0.004266902 0.00041317163 0.0013672372 -0.00079378963 -3.8196424e-05 0.0014529569 -0.004880371 -0.00029673288 -0.003059245 -0.0046699625 -0.0049438095 -0.0026663155 0.0026176854 0.004170457 -0.0037710154 -0.0029676852 -0.003487192 0.0035318483 0.002610681 0.0026122334 -0.002927716 -0.0004673846 -0.0020876057 -0.0019464517 -0.00011442612 -0.0030429733 -0.0039761127 -0.001134509 -0.001156675 0.0023259362 -0.0042089955 -0.00040945478 -0.0037495722 -0.0033654785 -0.0031549274 -0.00067410327 -0.00079175615
AGCACCCCATATCAAATGGTTTGCAGTTACTCAAAGAGTCTGTTGAAGAAGCCACATGTCACAAAGTCCTGGCTGTTTGATCATAGTGAAAGCCATATGTT -0.0011361312 -0.0017944647 -0.0016733253 -0.0028679324 0.00057745574 -0.0020432186 0.0025169028 0.0023586878 -0.0013375327 -0.0015484185 -0.002109133 0.0041788183 -0.003867192 -0.002032934 -0.0018397028 -0.002427227 0.0024916716 -0.0019675924 -0.004943037 0.004942611 0.00011325723 0.003636949 -0.0043888227 -0.0011433581 0.0016406497 -0.004466963 -0.001679559 -0.00057596917 -0.000978387 -0.0035264154 -0.0047732075 -0.0028274704 -0.001656834 0.00053010235 0.0007064861 0.002112058 -0.0030417584 -0.0017441858 0.0048458013 0.0013256271 0.0020854443 -0.004919805 -0.0008784103 -0.0044173556 0.003380636 -0.0010778763 0.0031007582 -0.0032096973 0.0009557498 -0.0033131966 0.0032403853 -0.002395414 0.0010375696 -0.002107818 -0.0028536217 -0.0038110465 -0.004013914 -0.0011898734 0.0041785943 0.0009438676 0.00060202205 0.0016947914 0.0032165945 0.0033660892 -0.002130605 -0.0037906119 -0.0021065797 -0.0049962797 -0.004699663 0.0039287023 -0.003185028 -0.0027240803 -0.0024480366 -0.004704437 0.00031106052 0.0016486159 -0.0029191351 -0.0041962788 0.00375713 -0.0039244075 -0.0009766205 -0.00420046 0.004836213 0.003932156 0.00032005805 -0.003083125 0.0012423984 -0.0010568289 0.0023159378 0.0035888683 -0.002460512 0.0024150184 0.0032081115 0.001959868 0.00043449577 0.0009966046 -0.00219504 -0.0016718535 -0.0016510892 -0.0020587414
CAGTCATCTAGATGCTGGAGGCCATCATGACAATTGCCTCCACGACTTGTGGCACATGTGAGTGTTCCACTATCTGGCGTGCAGGTGGTGCTGATGGTCTT -0.0032854967 -0.0026203392 -0.004647505 -0.0032580022 0.0027160519 -0.0036060093 0.002951614 -0.0003487606 -0.0025428762 -0.00013366641 -0.0039569726 -0.0033285492 -0.0024779364 -0.00015423063 -0.0011472512 -0.0018444872 -0.002863782 -0.00045972108 -0.0048900186 0.0013720804 0.00094535574 -0.004130818 0.0036917618 -0.004435212 0.0020186068 0.0026671211 0.0035458265 0.00021502306 -0.0037560107 -0.0016321188 0.00306563 -0.0037725465 -0.0038831723 -0.0031006846 -0.002316819 -0.0022846097 0.002566753 0.00083674013 0.0012440534 -0.00020270488 -0.0016351984 0.00010930279 0.0048741316 -0.0029443621 -0.001128803 0.004512484 0.003270065 -0.004026916 -0.0024918795 0.0005423096 -0.0015991306 0.0047929077 0.000562815 0.0004946312 0.0046412386 0.001568875 -0.002383007 0.0020669335 0.0012967782 -0.0036547966 0.0027333207 -0.0023144349 0.003140716 0.0033022861 0.0008358951 -0.0023370876 -0.0009826203 0.002809708 -0.0028156652 0.003654592 0.00091195817 -0.00042155132 0.0032650607 -0.003238873 0.0033578542 -0.0017541307 0.0045918636 -0.0015667612 -4.678446e-05 -0.000813601 -0.0006992826 -0.0027606713 0.0018814413 0.0024861158 0.0014331265 -0.0011388774 0.0022931437 -0.003528092 0.0019523336 0.002558181 -0.0006327852 -0.002324858 -0.0041489885 -0.00024280198 -0.0022470085 -0.001513667 -0.0023044122 -0.0024680635 -0.0014041432 0.001052885
GGCTGTGGGAGCCCCAAACGCCTCTTGCTCCACCTGCCCCAGTCCGAGTGTGCCCCCTACTGTCTAGAATCCGCCCGGGCCACCTGGCGAGGGCAACCTCC -0.0010098629 0.00062500377 0.0023933712 -0.0037014459 0.00019961566 0.0013938899 0.004820996 -0.00045527404 -0.0027723326 -0.002450989 0.003235415 0.004974287 -0.004144183 -0.0033460506 0.0025349155 -0.003824473 0.0017466692 0.0025940847 -0.0032999925 -0.002303298 -0.0020332967 -0.0023566496 -0.0044851066 -0.003938178 -0.0020613384 0.002809584 -0.0033041262 -0.0041203983 0.0032048647 -0.00037183933 -0.004142951 -0.0032913038 -0.0036791258 -0.0014496485 0.0021114873 -0.0020958881 -0.0037884123 -0.0017575026 0.0025079106 -0.003096287 -0.0041248538 -0.0017226763 0.0011883087 0.0011570134 0.0035365876 0.0048707267 -0.0013658274 -0.0030187883 -0.004218794 0.0036461507 -0.0044475384 -0.0028754545 -0.0016741928 -0.0007225913 0.0026864603 0.000120772645 -0.004244207 -0.0020730004 0.004342015 -0.0016835369 -0.0045829457 0.0012927569 0.0014538917 0.00012957313 -0.0025900137 -0.00039770213 0.004960406 0.0046877265 -0.0018514377 -0.004839036 0.001337459 0.0027647342 -0.0045118206 0.0017982342 -0.004372004 0.003928784 0.0036147558 -0.004998726 0.0019425577 -0.002936623 0.0013655898 -0.0011928658 -0.0028498366 0.0034786076 0.0026762544 -0.0043439846 -0.0032675993 0.0018005677 0.0028484089 0.004637709 -0.0007052759 -0.0010026195 -0.0030897276 -0.00011377639 0.00015532621 -0.0006699454 -0.0027164414 -0.004640422 -0.0017757677 -0.0012307994
TAAGTGCTGACGACACCCCTGCTGGGTCCAGCCTCAGGGGACACAGTGGGGAACTGATTGACAGCCATTAAGAAAATGGAATTGAACACCTCAGATCAGAC 0.0044513578 -0.0042230757 -0.0006269905 0.0044911825 -0.003165613 -0.0049039284 0.0009461704 0.0032174215 -0.0014272318 -0.00461124 -0.00062338565 -0.0039086435 0.004132593 0.0005982158 0.00018605903 -0.003030329 0.00039142225 -0.0048237294 -0.0033563883 0.0022307355 0.0003512043 -0.0011070868 0.00044296432 -0.0048216023 -0.0042867707 -0.00060566264 0.004749858 -0.001508838 -0.002774367 -0.000539451 0.0041437666 -0.0011741497 0.0029718627 0.004246632 0.0008843076 -0.0022198474 0.001881672 0.00493427 -0.0010103248 -0.00178035 0.0005310538 0.0020973978 0.0039577307 0.0015320239 0.004688435 0.0028688887 -0.00069912255 -0.004693544 0.004499015 -0.0007325705 0.002237785 -0.00085063785 0.00043793596 -0.0027837993 0.0020315966 0.0021098212 -0.0014633408 0.0028437027 -0.003511438 0.0019934492 0.0020164656 -0.00078283966 0.003212851 0.003955854 -0.0034575495 -0.003725152 0.0007290403 0.00081801944 0.0016146582 -0.00451115 -0.00043001704 0.0024987631 -0.0038627833 0.00010957947 -0.0018499807 0.0031276632 -0.0043537975 -0.004610851 -0.0010283763 -0.0040886267 -0.004286368 -0.0019293203 -0.0006584226 0.00066215504 0.0022542109 -0.00319507 0.004086302 0.0032582735 0.0017890226 -0.002147103 -0.0043718005 -0.00085239444 -0.0033511193 0.002741311 0.0003058577 0.0049764067 0.004563776 -0.0047232434 0.0047610807 0.0021563892
GATGGGATTCTTTAGCGAGGACACTACCGAGGCGCGACTTCCTGACGCGCATCCGATCCGGGAAGGCGCACTTCCGCTCCCCAGTTGCCGCGGGATGGCAA 0.004497871 -0.0012547103 -0.0033496055 -0.0002330997 -0.003331164 -0.0021612083 0.00060806697 -0.0031106926 0.0044265687 -0.00021607711 -0.0031578036 -0.0007404148 0.004931416 -0.0048238668 -0.0023430528 0.0011478945 0.0024572532 0.00032141522 -0.00046508497 0.003992506 -0.0014744494 0.0017274382 -0.0016580977 0.0013383199 0.0029825082 -0.0038761261 0.0007054999 0.002121693 -0.0017225778 0.0027723957 0.0018142618 -0.002575939 0.0029871555 0.0045042513 0.00087264675 -0.0024040984 0.0033560349 0.0013770879 -0.0032629198 0.002570495 -0.0041992026 -0.003375268 0.0012081901 0.004924583 0.003370753 0.0004413365 -0.0033837853 -0.0041933465 -0.003760736 0.00031964242 0.00064169883 0.0030467922 -0.0016218271 -0.004741265 -0.00047121957 -0.004503937 0.0033583667 0.0024948097 0.0038672022 0.004991163 -0.0036628994 -0.0041645146 -0.00044730012 -0.0041631847 0.0014768677 0.00064027775 -0.003838349 -0.0028594264 -0.0020582355 0.0015525754 0.0039453744 -0.0031945033 -0.0011831151 0.0031922262 -0.0024711147 0.0017780173 0.0014018085 0.0028368074 -0.0040392987 -0.002909748 0.0036753917 -0.0043514036 -0.0007085809 -0.0036936102 0.0026199715 0.0042454368 0.0017617958 0.00013783025 0.0037424976 0.0030352343 0.0001875099 -0.00016665136 0.00077781273 -0.0021462042 -0.0012275239 0.0021861286 -0.004529161 0.0037038287 0.0049870373 0.0043607107
TAAGCCAGGAATCGGGAGACGGGACTTGAGAGCATTTGAGCCAATAACCTGTGCCTGAAGCTAGTGCCACCTCTTGGACGTTTCTGTGATATTAGCTGGTA 0.003243397 0.0014095736 -0.0032544963 -0.0025138399 0.0033609453 0.0044233557 0.004070931 0.00498641 -0.00022488942 -0.0034751552 -0.004105078 0.0026350913 0.0015992589 0.004494773 0.002524387 0.0032541233 0.003931771 -0.0043687746 0.0010115876 -0.00439544 0.0046695615 0.0031107888 0.004129634 0.0003315545 0.0018627885 -0.0019291206 -0.0029239391 -0.00016592273 -0.0038860799 0.0045436113 4.343285e-05 -0.0011741439 0.004246022 0.0029488027 -0.0010969441 -0.0038085 0.00045746143 0.004106833 0.0017280043 0.0021742103 0.0036197389 0.0049221357 -0.0016974416 -0.004884107 -3.931707e-05 -0.0029982931 0.00011300338 -0.00033646898 0.0016051803 -0.0029627634 0.0023906722 0.0045326217 -0.004527056 -0.0046518454 -0.001030122 0.0029268553 0.0030140316 0.0012489873 -0.0027841625 0.0007812839 0.00043222727 0.00033826733 0.0045857006 -0.0010227761 0.0005785417 -0.0033249904 -0.0042336388 0.0028419767 -0.0046376237 0.0024941363 -0.0004969468 -0.002425429 -0.002584815 -0.002588713 -0.004927673 -0.002086021 -0.00039268253 0.004413786 0.00049672247 0.0014530243 0.0013581555 0.0005486945 0.0014288652 -0.0030958839 0.0009812091 -0.003045313 -0.0035321524 0.00084163813 0.00074979785 -0.0024157595 -0.0012347031 0.00069986086 0.0018031533 -0.0013046616 -0.0013395895 -0.00081184186 0.0011692885 0.0034656776 -0.0018279192 0.0007962345
AGTTACCAAAACTTCTAAAGAAGTTCCAATACCTTACAAGAAACCAGAAAGCTACATTAATGTTGCCCTAAACTGGTCCCAAATGTAGAAATTCCCAGGAC 2.3937206e-05 0.0038721873 -0.0011036661 -0.0042861067 -0.00014714785 0.00056985556 -0.0021645753 0.00011566615 -0.0038360297 -0.0020932052 -0.0036245985 0.004653919 0.0033159717 0.0044637 0.0035181679 0.0049269386 -0.0022972957 -0.003315742 -0.0027700097 0.004263338 0.0009840394 -0.001075461 0.0040452895 0.0042928606 -0.004915199 -0.0013829581 -0.0031227048 0.0036480676 -0.00048660464 0.004487905 -0.0009942343 -0.00071429607 0.0049250377 -0.002173658 0.004213236 -0.003729407 0.0042920117 0.0010385093 0.0016222671 -0.0042767483 0.00082493364 -0.0022772856 -0.0029508076 -0.0030717645 -0.003828616 -0.00119627 0.0010291176 -0.0020936143 0.003081235 -0.0041124597 -0.003349762 0.004745211 -0.003582126 -0.0033896628 -0.003445165 0.00033893177 0.002195663 0.0025483223 -0.0009386112 -0.0049698628 0.0030015546 0.001931659 -0.0025788436 0.00047474945 0.00022947913 0.004306659 0.002605099 -0.0010871628 -0.00064148486 1.5652931e-05 0.0022688743 -0.0035120742 0.0023413955 -0.0015812359 0.004529854 0.00089194917 -0.0033073386 -0.0008758324 0.0012821835 -0.0017946037 0.0026127126 0.0036652875 -0.0026441133 0.0026363856 -0.003111506 0.00073891773 0.00054478104 0.00015134647 0.0034518125 0.0038169182 0.0018441611 0.0017663982 0.0023063465 0.004044904 -0.0026278517 -0.0024446556 -0.0047000013 0.0040038833 0.0037640345 -0.0004975619
AATTAAACCGGTGATGATAGAGATGAAAGAGGCGGGTAGGTCATCGCAGTGCCTGCGGTAGGCACTAGATGGCGCCCAAGCACACCAAGAAGGCGCTGAGA 0.0043869866 -0.0030592529 -0.0017568135 4.9262402e-05 -0.0032392163 0.0014168468 0.0015277329 -0.003198334 0.00054306077 0.003329794 0.0021149768 0.00042355654 0.0035061825 0.0039963257 -0.0027134472 0.0018795218 -0.0040923883 -0.003534656 0.00080372853 -0.0046879672 -0.00056859653 -0.0009396243 0.0037626051 -0.0042068763 0.0006566849 0.001293598 0.0021189991 -0.00083539216 -0.0021369306 -0.00013290052 -0.0016659838 0.00061004015 -0.0020942849 -0.0034124928 -0.001725828 0.0037013867 0.0022692566 0.0037969223 0.0018852062 0.0018188956 0.0020747937 0.0012975481 0.002642554 0.0016420886 -0.001013901 0.0017153722 0.001021986 0.004336931 -0.0012849387 0.0015274085 0.00065626414 0.0026188795 -0.004558953 0.0039241905 -0.0013593897 0.0013959162 -0.0013525588 0.0024426533 0.00057129684 -0.0044084326 -0.00024095592 0.00021641458 0.0002889345 -0.0042025144 0.0018279466 -0.0006294603 -0.0008780935 0.0011776929 -0.0031626918 0.003615478 -0.0046732794 0.0031118828 -0.0018140727 0.0030635607 -0.0023256887 -0.0035604849 -0.0022629783 0.004532203 0.00023599819 5.0391394e-05 -0.001277387 0.0026088126 -0.0032782606 -0.00023033255 0.004562259 -0.0035146333 -0.004206738 -0.0035151835 -0.0048794076 0.0030602082 0.0047399313 -0.0005360405 0.0035320695 -0.0020188817 -0.0016862123 -0.0036761512 -6.631389e-06 0.004870303 -0.0036040884 0.0025277953
GCCGCTCCTGCCGCTGCGCCGCTGCCAACCGGGATGCGCGGGTGGACGCGCGGGGGCGCCGCAGCCCTGGTGCGGGTCGGGGCTGAGCCGCCTGGGCTTCA -0.0019012067 0.00024138618 -0.0045501213 -0.002871928 0.0029006877 -0.00059180375 -0.003409015 -0.0021501454 0.0022508467 0.0002105946 -0.004813322 -0.0028328006 -0.0029402832 0.0040659653 -0.0023448227 0.00017581803 -0.0032636803 -0.003979357 -0.0011402344 0.0026207534 -0.0036343304 -0.0038321929 -0.0029848698 -0.0034108502 -0.0028378754 -0.0006926638 -0.0031955068 0.003499349 -0.0045065917 0.004356051 0.0027747808 -0.003984872 0.0029801356 0.002684102 0.0035046905 -0.0033283632 0.0038226694 -0.0006381488 -0.004465778 -0.0036212697 0.00089450524 0.0016782272 9.701018e-05 0.001956508 -0.0046833497 0.0009658581 0.0035444647 0.0036004456 -0.001736502 0.003805929 0.00080000045 -0.0019314246 -0.0036990182 0.0049813865 -0.0031077324 0.0031978583 -0.0033619332 0.0015786458 -0.00487887 -0.0028111145 0.001904565 0.0027455378 -0.0019106547 0.0021455996 0.0035084144 0.0019046088 -0.0047298865 0.0030725775 0.0019682841 0.0009924468 -0.004027053 -0.0049183145 -0.0018375348 -0.002568333 0.0021510557 0.0034824093 -0.0047881715 0.000630085 0.0012219156 -0.0014011831 0.002954791 -0.0006272591 -0.0027555227 -0.0013462283 0.0018933837 -0.001731316 -0.0021307531 0.0025789274 -0.004421332 -0.0006994545 -0.0024137367 0.0018570882 -0.0039683804 -0.0041493904 -0.000586926 -0.00087355624 -0.0049357 0.000832955 0.001290527 0.0036117348
TAGCTTTTCTATATTTGCATTATGAAAACAGTAGTTTTTTTTCACTTCCCAAATTCAAAACAACATTTTCTATTTTAATAGTGAATATGCTATATGTGCCT -0.004380604 0.00022193785 -0.0041003255 0.004880604 0.0026755533 0.0025755854 -0.0034213024 -0.0021611475 -0.0008696383 0.0029306118 0.0022390983 -0.0015118457 0.0045440076 0.00078919664 0.0039722463 -0.0013918725 0.0046890583 -0.004135285 0.00012742811 0.00048350974 0.0011102192 0.004390894 0.0034078176 0.002065635 -0.0018628718 0.00043802947 0.0032392554 -0.0028003368 -0.003611613 -0.0038296792 0.004073963 -0.0045344117 -0.0025352726 -0.002330048 -0.003960722 0.0029689253 -0.0020843549 -0.0014606388 0.00037640386 -0.0013203414 -0.0032329566 0.0042877416 -0.00026228285 -0.0043402384 0.0021525493 0.0040189284 0.0039822445 -0.004997967 -0.00428362 -0.0030610934 0.0015304185 -0.004107163 -0.0013122404 -0.00282496 -0.0023817515 0.00096607016 -0.0030036843 0.0018628464 -0.0032115483 0.003909034 0.0033972235 -0.0013421909 0.004699665 0.00079475093 -0.00018456276 0.0014692819 -3.558094e-05 0.0015877883 0.0020786817 0.0009999509 -0.00043867336 0.0012669227 -0.001499143 0.004041528 -0.0019778612 0.00082241354 0.0048147184 0.0030314927 0.001960857 0.0007025054 0.003809355 0.003282029 0.0014139498 -0.004893853 0.0019256204 -0.00020344723 -0.0017474886 -0.0004924947 0.00049184915 -0.0022249431 0.0035056064 0.0023885241 0.0017028027 -0.0009644149 0.0030583488 0.0006023834 -0.00064972066 0.0033950114 0.0018763514 -0.0039108573
AGGTTTGATTTGTCAGCAGGTTAACCACACAAGGAGTTAGAGCTTTCAGCCCATGCTGGGGGATCTGGGGCAAGAGGCTTGGCCCCCTAGCAAGGGCTGCA 0.0010802465 -0.0021944693 -6.831211e-05 0.0025878246 0.0039030379 -0.0017035018 0.0016632361 -0.0010299511 0.0028976293 0.001290179 0.0017336456 -0.0046649696 -0.0018175236 -0.0029633627 -0.00093604653 0.0011749314 -0.0047225263 0.0018525922 -0.0007188211 0.0031693864 0.0019543672 -0.003211871 -0.0003471626 0.0035566292 0.0020583333 0.003198365 0.0033631774 0.003901227 0.0016752625 0.004939796 0.00018165466 0.0034533488 0.0031756286 0.00047361164 -0.0017386463 0.0009722979 0.00073538104 -0.004646228 0.0045480025 -0.0011641264 0.0003895214 0.0036385565 -0.0026835091 -0.0015835408 0.0029843245 -0.0007358872 -0.0035461714 0.002278705 -0.00071736285 -0.0012351241 0.0046518096 0.0017078554 0.002884529 -0.0006576409 0.0019796917 0.0038910317 -0.0035721362 -0.0041525704 0.0049199807 -0.0029617513 -0.0045315614 0.0023174053 0.0015334659 -0.0006892434 0.00019983176 -4.4534005e-05 -0.0030804498 0.0001731059 0.004619873 0.00026936232 -0.0005068616 -0.0037057607 0.0045160176 0.002250487 0.004653608 0.0011679693 -0.0015741475 4.988322e-05 -0.0025575035 0.0011505142 0.0034166055 -0.00057025545 0.0014911749 0.0019689016 -0.0010836861 0.001313263 0.0018531461 0.004411764 0.0005213611 2.251001e-05 0.0021117167 0.0043458897 -0.0009216565 0.0039078994 0.0008260904 -0.0047924905 -0.0006555669 0.0041406495 -0.002674375 0.0021457698
GCGGCGGTGGTGTCTTCGCCGTCTTTGAAAACAGACACATCCCCTGTCCTTGAAACTGCAGGAACGGTCGCAGCAATGGCTGCGACCCCGTCAGCAAGGGC 0.00042605028 -0.0040997267 -0.004240486 -0.0013332599 0.004317954 -0.0034783077 0.0033829573 -0.00016585391 0.00040440093 0.00444452 0.0005669266 0.0019461522 0.00094215677 0.0012435615 0.0040122904 0.00265099 0.0024150675 0.0036382645 0.00219264 -0.0033384291 0.00022201038 -0.002911291 0.0005012512 0.0016917565 -0.004837916 -0.0028086046 0.0014402503 0.004332064 -0.003859047 -0.003983111 -0.004746282 -0.0036329115 -0.0027529844 -0.0023930208 -0.0027689973 -0.0048342873 0.0048283827 -0.0029868528 0.0034487408 0.004255916 0.0017063074 0.0031670039 -0.0007763303 -4.353116e-06 -0.00023749191 -0.004153982 -0.0013690516 -0.004093932 0.0037735794 0.00050729746 -0.0024969378 0.0009792864 0.0008358935 0.0019429394 -0.0047239684 0.0014485887 -0.0040311096 -0.0014817582 -0.0045770076 0.0034525916 -0.00444376 -0.004380719 -0.00047516255 -0.00012527953 -0.0015317174 -0.0041263346 0.004764851 0.0040477803 -0.0036481528 0.0020548305 0.004862718 0.004525757 -0.0013555997 -0.0008391591 -0.00048170082 0.0015443357 -0.0004266439 0.0031689436 0.0026711638 -0.0018202096 -0.00031482073 0.00041016593 0.00030278013 0.004026251 -0.0009716555 -0.0023036685 -0.0015735298 -0.004129625 0.0011677025 0.0019690183 -5.4805023e-05 0.002572103 -0.0031162878 -0.0013124963 -0.000518531 -0.004123198 -0.00018633898 0.0031749594 0.004421836 0.00054053206
CCAATGCCTGGGGCTCAGCTGCGGCCTGGGCTTTACGCCCCCTCCTGGCGACAGAAGACATAGCGGCTCCCCGACTTCAGGCTTCTCCCACAACATCCAGG 0.004263289 0.0033552505 -0.0028377338 -0.0048698257 0.0020128912 0.004040738 0.0015616231 0.00090999034 0.0045509553 0.004965825 0.0016374905 0.0035608343 -0.002142015 -0.004195054 -0.0028472443 0.0037370746 -0.0033454935 0.0014923805 -0.004013097 -0.0040834807 -0.0029602651 -0.00045330203 -0.0015613216 -0.0049503865 0.0037567047 0.00023255743 0.0040207407 -0.0047382223 0.0034439235 0.0047326777 -0.0012254284 -0.00076371565 -0.0028190212 0.0031849816 0.0028653338 0.0038904666 0.0036446846 0.004375496 -0.0026955123 0.00024217935 0.0026649223 0.002372661 0.004329726 0.0026615886 0.0010405586 -0.001361107 0.00020815626 -8.493796e-05 0.0025411658 0.00035764617 -0.0026220533 -0.0014008791 0.0046764915 -6.9626185e-06 0.004489021 0.0026264507 -0.0035960458 -0.0049915123 0.0011040564 -0.0017435142 0.00425929 -0.0046435636 -0.0019067556 0.0009261301 -0.004131845 0.0047572274 -0.002072606 -0.0017859171 -0.0014822772 -0.0032275005 -0.003062291 -0.0010154017 0.0018911536 -0.0028557784 -0.0010555497 0.0038742707 0.0034702641 0.0031181744 0.0047351425 0.0049023507 0.00021616975 -0.000290926 0.0006020764 -0.0005759751 -0.00292114 0.0023705536 -0.0006892769 0.0011651319 -0.0042785835 -0.0002086324 0.0005447721 -0.0027974758 -0.004886421 -0.0039694593 -0.0007606617 0.0037991267 -0.00049298664 0.00091537344 -0.0018654141 -0.0021532096
ACCTGGCCGCTCCAGACGCAAGGCCACTTGCCCGCCGACTCCCGGTCGCGGCGGGCGTGGCCCCTCCCGGCCAGCTGGCCGGGGTCTACTGCCCGGGCCCG 0.0044607418 0.0005069465 0.002487949 -0.0025479174 -0.0022092827 -0.0012386197 0.00066623837 -0.0025119234 -0.0018706172 -0.002242409 0.0046471856 -0.0032293142 0.0009231874 0.001352812 0.002421615 -0.0041636163 -0.004921154 0.0011479672 -0.0010812005 -0.0013923664 0.003132963 -0.00085659034 -0.0019477381 0.0020410942 0.0033584735 0.0012828064 0.002774137 0.0016280676 0.0026687712 -0.0006759318 0.0002328128 0.0014508886 -0.002212664 -0.0026255015 0.0033287557 -0.0040107095 -0.0022260274 0.0029726478 0.004100359 0.004471135 0.0002873423 0.0034763329 -6.8075846e-05 0.0026520595 -0.00039136302 0.00212083 0.004142019 -0.00031547082 -0.004421834 0.0011040495 0.004061275 -0.0011548114 -0.0017557453 -0.0032483744 0.0015680382 -0.002546402 -0.00038577296 0.0024287382 0.0042196726 -0.0049180537 -0.0043034763 -0.00077795563 -0.0012668142 -0.003359667 -4.3598488e-05 0.0037651842 -0.0008266272 -0.0045262855 -0.0014847774 0.003512562 0.0023787618 -0.0012906529 -0.00109975 -0.0030266128 -0.0049303416 -0.0038975046 0.0019791198 -0.0040992307 -0.0016329129 -0.0009719418 0.0013864723 0.00092111825 -0.001834698 -0.0037582836 0.0027368113 0.0046366705 0.0014918612 0.0042154905 0.0017210204 -0.0015549805 -0.000984687 0.0005084886 -0.0012118162 -0.0018598256 -0.00084380264 0.00011242473 0.0033896393 -0.0042746053 -0.0034587346 0.0017009533
ATGACTTATAGCGCTCTTTCCAACATACAAATTGTCTGCATGCTGGTGTTCTAACTTTGCTGGGCCCCCTCCTTACTCCTTATTCCAAGACAGTACCAGGT -0.00017094101 -0.0005100991 0.00026570892 0.0022435542 0.0048640976 0.00027236473 -0.0011020249 -0.0047894875 0.0011479555 0.004277815 -0.0036319545 0.001964572 -0.0021510974 0.001523159 -0.0015246503 -0.00471914 -0.0021551328 -0.0022485873 -0.00019560137 0.0008563428 0.000769126 -0.0020997794 -0.0032402442 0.0034404024 0.00022693865 -0.00015501551 -0.0020875987 -0.0043353457 -0.0013787762 0.0030068634 0.0046715285 -0.0005603897 0.0019950117 -0.00019665028 0.003989448 -0.0027523774 0.0014781974 -0.0010496688 0.0009967156 0.0014795435 -0.0031685887 0.0024411823 -0.0016537516 0.0023717778 -0.00035184957 -0.0038580843 0.00026329892 0.0042996537 0.004817815 -0.00012272137 -0.0015614522 -0.0026274114 0.001416627 -0.0038283009 0.003672656 -0.0028158408 -0.00015139286 -0.0037246726 0.0011873269 0.0030699032 0.0034449513 0.0028052272 -0.0033336002 -0.0035540017 0.0040020505 0.0014038855 -0.00086290936 -0.003950468 0.0044016456 -0.0013006489 -0.00063199416 -0.00018152341 -0.0047590663 -0.003593857 0.0028285594 -0.00088295515 -0.0031334988 0.0010608073 0.00346921 -0.001753927 0.0025384116 -0.004635592 -0.0033152292 0.0019345601 -0.0028425897 0.0028699525 -0.003631254 0.003871875 -0.0043068365 0.0038211797 -0.0016545921 -0.003139693 0.0028264977 0.0035909216 0.0046693715 -0.0038259213 -0.0040644426 0.0007729487 0.0039546723 -0.004802592
GCAGCGGGGCCTGGGGAGATCCCTCCGAGGAACAGGGGAGCAGCTGTGTGAGGGGACCCCGGAAGAGGGGTAGCAGGCAAGGCGGCCACCCTGTGGAAAGA -0.00090535084 0.002125319 -0.00013978459 0.0017121822 0.0038913912 0.0026109922 -0.0016201049 4.0259012e-05 -0.0028931783 0.0017036216 -0.0020593482 0.0039608944 -0.0020357557 0.00023296452 0.0013155151 0.0015610607 0.0021347832 -0.004699747 -0.0032314016 -0.000109058674 -0.0015650794 -0.0049623065 -0.0035663384 0.0048609935 -0.0027131387 -0.0042576776 0.00033826884 0.00046854335 -0.001692096 0.0013626862 -0.0042468933 0.0027034383 0.0032622537 0.0046997196 0.0038057037 -0.0002880475 -0.002882188 -0.004119029 -0.0018002719 -0.0034232705 0.0021511728 0.0007338282 0.001248919 0.00082942244 0.001880121 -0.0004734242 0.0034864852 0.0006246023 -0.0026542665 0.00023348155 -0.0019546729 -0.0038336988 0.0038910469 -0.0024774116 0.003572505 -0.001505567 0.0024592294 0.004796466 0.0044410573 -0.0038057112 0.0047998307 0.0021827174 0.00019470233 0.003487467 0.0008521085 -0.0029365309 0.00052887877 0.00077724387 0.00022628356 0.0029844216 -0.0016443192 0.00033992482 0.0004925467 0.00091058743 0.003014098 0.004390969 -0.0033844667 -0.001783146 -0.0005889803 0.00304515 -0.0014634005 0.004753189 -0.0019088867 -0.0023407524 -0.00064451626 -0.0027087145 0.0031649843 -0.0024355412 0.0027031165 0.000670597 0.0025986882 -0.0036248527 -0.00019995411 -0.0041475003 -0.00023655297 -0.0029249354 0.004825632 -0.00072340306 0.0014194739 0.0021902993
GGACGCGCTGCTGGCGCGGGGCGTGCTCACCGGGCCAGAGTACGAGGCATTGGATGCACTGCCTGATGCCGAGCGCAGGGTGCGCCGCCTACTGCTGCTGG 0.0011052674 0.0020339957 0.0013448084 -0.0036937252 -0.002422225 0.0005537203 0.0035113576 0.00059632893 -0.0045985617 0.004690599 -0.004406056 0.0004449774 0.00024352736 0.0012828491 -0.0030032175 -0.0031462414 -0.0010188413 0.0024085976 -0.0048971064 0.00054956187 -0.003154768 -0.0028377126 -0.0008557027 -0.004545276 0.004914921 0.004076475 -0.0013731425 0.0039710333 0.00403659 -0.0017638219 0.0010798663 -0.0021901107 0.002453775 -0.0035724675 -0.004280978 -0.00056262745 0.003506683 -0.004251114 0.0011016077 -0.00041760114 0.0016495523 -0.004546733 -0.00392766 -0.002025199 -0.004484727 0.0044631697 -0.004002344 0.0020349512 -0.004351255 0.0014890116 -0.0030138732 -0.0020003258 0.0046177087 0.0035770242 0.004935791 -0.0012516399 0.0031716262 0.0047104806 0.000904922 -0.0010735063 0.004070757 0.0018984507 5.712774e-06 -0.003623135 -0.0042429133 0.0014582801 -0.002543989 0.00026869343 0.0010768165 -0.0019998613 0.0010397488 -0.0009572204 -0.0027310979 0.0031858021 0.0029182285 -0.00042981427 0.00050907495 0.0044253273 0.0036974312 -0.0014107418 -0.0016193681 -0.0014886812 -0.0005082603 -0.004915909 0.0010693459 0.0010381986 0.0027800826 0.0029756075 0.004989991 0.0011621503 0.002710258 0.0008439078 0.003303007 -0.004276614 -0.0035772794 -0.0008158353 0.0031724928 0.001871881 -0.0038853793 0.0006449323
ACAACATTGCTTCTCTTCTCTGGAAGTTTTTTCTGACTGACTCATGACACATGCAATGGTCAATAACACACCTACGTGGCAACAGCCAAGAAGGAGCACTA -0.004844124 0.0025215577 -0.0012325682 0.0036220362 -0.0022365164 -0.0036877347 0.0031952306 0.0020634986 -0.002632971 0.0021392251 -0.0025900279 -0.0026405784 0.0026209543 9.801668e-05 -0.002679815 -0.002606814 -0.0046574147 0.004099374 0.0014719737 -0.004714008 0.0022679276 -0.003858781 0.0039156107 -0.0005787487 -0.0026356592 0.004689884 0.0021292141 -0.0045142476 0.0027081107 -0.0005768986 -0.0035052416 -0.0005778635 -0.003418647 -0.0012057343 -0.0020259295 0.002427886 -0.004152163 -0.0021337075 0.0024068954 0.0018706095 -0.0025155218 0.0043886537 0.00053945696 -0.004752079 -0.0042733075 0.0028604898 -0.003049879 -0.0047881063 -0.0008165068 0.0049747447 0.0016551818 0.0031281249 -0.00075704005 0.0017376983 0.0024783146 0.0045050024 0.0037559248 -0.0003828324 -0.002827821 -0.0020090146 0.0036319944 -0.002219563 0.0010065327 -0.0015719968 -0.0040950663 -0.0016452174 -0.0031335722 -0.00039471436 0.002502602 -0.0015370507 -0.00438012 0.00014371508 0.001983024 -0.0038577793 0.0016610861 -0.0005359202 0.0024583181 0.001842593 -0.002993762 0.0010240874 -0.0005847067 0.0011122683 0.0034645263 -0.003810625 -0.003813463 0.0038630862 0.0033657928 0.0012637797 0.0036815123 -0.0026011383 0.0040373853 -0.003879955 0.0001410711 0.0022690692 0.004875157 -0.0022638515 0.004536078 0.002598797 -0.0024014523 -0.0005840666
GGGCTGATCATAAGTGGCTAACTGGGCCTAAACTCAAAATGGAGCCAAGCAGCCATTTGCTGACTGCAAGTCTCACACATTTACCCTGCTTCCTGCAAAAA 0.004951682 0.0022746345 0.0036050659 0.0017396894 -0.001338201 -0.0025989017 -0.0010298203 -0.003598392 0.0014872716 0.004042157 -0.004661573 0.0019851287 0.0013862114 0.00019260273 0.0014810537 -0.0006956677 0.0023890925 -0.003021586 0.0015403081 -0.004075081 0.0046708756 0.0009951231 0.0047563715 -0.0035797136 -0.003941074 0.0014019932 0.004214222 -0.0021692417 0.0013538945 0.0049134335 0.003121112 -0.0002712864 6.667901e-05 0.00025494493 -0.004951541 0.0016471514 0.002847732 -0.0027311444 -0.0016783832 -0.0031398907 0.00465196 0.0007932532 -0.0017989503 -0.0029177987 0.004722607 0.0015991846 0.004679196 0.000499813 -0.0046835574 0.0032651664 -0.0011067865 0.004321001 0.003925553 -0.00049171306 -0.0002613064 0.003096681 -0.00057717046 -0.0028837465 0.004025798 -0.0007890749 -0.0024628083 -0.0014899501 0.0049653347 0.0029562141 -0.003523086 -0.0009470004 0.0040406985 0.0026722103 -0.0037593823 0.0015297687 -0.0040003345 0.0008901598 0.002861166 -2.9112844e-05 0.003922497 0.0013834088 0.0034036632 0.0043248325 0.0044812094 -0.00015503922 -0.0015228022 -0.0032256127 -0.0028442568 0.0007183909 -0.0010112034 0.00046178384 0.002760419 0.004503162 -0.003549237 0.0033672939 -0.004141493 0.0016185044 -0.004600282 -0.0021613399 0.0047069862 0.0033403041 0.0030784933 -0.004478292 0.0016468612 -0.004505887
GTTCCCCTTTGAGAGAACGGGTCACGTGCGCAGATGATCAAAGATCAGCTCCTGGTCAACATAAGTAAACAAGCCTGTTAAAGATAAATGCTCAAATACTT -0.0032375234 -0.0009771764 -6.35334e-05 0.0014699814 0.003907773 -0.004196722 0.0014353163 0.00338997 0.003188437 -0.00030985722 -0.0034673759 0.0002445639 -0.0025957453 0.003218775 -0.0042400504 0.0025291024 -0.0036175859 -0.004429685 -0.0043719634 -0.0014503436 -0.002301932 -0.0031524245 0.001303287 -0.0031702619 0.0041655907 0.0030205077 0.0015871882 -0.0010035596 -0.0020959906 -7.770769e-05 0.0020231355 0.001618082 -0.0019455886 0.00014373216 -0.004570584 0.0046047233 -0.0018364086 0.0013024639 0.0023595178 0.0039710524 0.0015430304 -0.0036480143 -0.0019388736 0.0022996655 -0.0005324176 -0.0043962374 -0.0044094203 -0.0027307002 0.0021498788 -0.003327719 -0.00057176396 0.004647267 -0.00092136965 -0.0024498077 0.0031220377 0.0031431385 -0.0010258119 -0.00048395642 -0.0012881405 0.0019402483 -0.0031824592 1.0737643e-05 0.0007506388 -0.0049846047 -0.0042605517 -0.0036336107 -0.0019394121 -0.0035082847 -0.004700647 0.00068371906 -0.000751172 -0.0008020275 -0.0017000092 -0.0005069313 -0.0044153184 0.0007028439 0.0021478122 -0.0034350327 -0.0049124304 0.00037930004 -0.0043602833 -0.0013249931 3.5413527e-06 0.00033041963 -0.003926774 0.0025649194 -5.880648e-05 0.0034679505 -0.0007666468 0.00026878403 0.0045667887 -0.0013197919 0.0035829376 0.0017033352 0.0039278446 0.0023061761 -0.00063171913 -0.0028860003 0.004767278 0.001713953
CTGGCCAGAGGGTCGCGCCGCCCCGCGGGGTACAACCTGGCGCCGGCGCTGGGCCGGTTGAGGGCGCCCCCGAAAACGCCCTTGGTGCCCGCAAGGGAAGC -0.0025466208 -0.0030109554 0.00083356834 -0.0003149641 0.0039991587 -0.0041561723 0.00031828918 -0.002642193 -0.0036949872 0.0025151519 -0.0023182312 -0.0002404785 0.0046177227 0.000993625 -0.002769413 0.002293744 0.0007968951 0.0018951935 -0.0001885022 0.0024081282 0.0011496396 0.0015656344 -0.003482052 0.001229702 0.0028584858 6.2484854e-05 0.0014863594 -0.0008942836 -0.0016358752 0.002907019 -0.004267094 0.0036060933 -0.0042335647 -0.004609042 0.001960212 0.002407158 0.0044764285 -0.00054753025 -0.0024450002 -0.0017855761 0.0011037389 -0.004940037 -0.0022368606 -0.0049439725 -0.002537956 -0.0021861675 0.002392389 -0.0019420421 -0.0036748636 0.003297375 -0.0021135192 0.003692669 0.0017499807 -0.00026219175 -0.0018368466 0.00015073855 0.004262824 0.001789202 -0.0024407187 0.0024958132 0.0028176932 0.0022844058 0.0007901902 -0.0034323272 0.0007770505 -0.0023496698 -0.000680685 0.002367577 -0.0040623597 -0.0045551783 0.004639766 0.0011689675 -0.0041168104 0.00017433356 -0.0013748806 -0.00286689 -0.0026000347 -0.00057831913 -0.0020645463 -0.00030802918 0.004602184 -0.001762301 0.0013968002 -0.0043247957 0.004044995 0.0042869477 -0.002869209 -0.004047723 -0.00181477 -0.00012699331 -0.0008012452 0.00015504776 -0.0012882521 -0.0005037215 -0.0039169765 -0.0039778254 0.0037002692 0.0026546272 -0.0011918345 0.0018601094
GTTGATCAGTGCATAATATAAGATTTCTCCTGCTGGTTCGAGTGGAGGAGTGGTCAAGTTAGAAGACTGGTTAGGACTCTGGTGGAGACTGTGGATTGAGA -0.0043401015 -0.0005096052 -0.0004121589 -0.0005692926 -0.0013884264 -0.0009138734 0.0041073235 -0.002690073 0.002887052 -0.0013774956 -0.0005330977 0.0019534887 0.0044137407 -0.0014385823 -0.004046198 -0.004760364 -0.0006759474 -0.00048374347 -0.003093599 0.003759731 0.0036659462 0.0026295595 -1.2387004e-05 -0.0013138023 0.0033187342 -0.0006416155 0.0008929658 0.0015829714 -0.004821729 0.00074357295 0.0006707438 -0.0016002419 0.0010658529 0.00037151316 -0.004863331 -0.004365303 -0.0017071075 0.0011376616 0.0011212076 -0.0042237598 0.0033917243 -0.0016780096 0.0032724587 0.0008219917 0.0023161292 -0.0031025847 0.00026940543 0.0018353872 0.0031403196 0.0016629276 -0.000979258 -0.0013975636 -0.0030156223 -0.0025307976 0.0014655956 0.0019505583 0.001361844 -0.0035285105 -0.0017761876 0.004236472 0.0047351187 0.0014370257 -0.003572418 0.0030642145 -0.0049305414 -0.002920058 -0.00043017566 0.0028745253 -0.0048986594 0.0035429467 -0.0014368598 -0.001809533 -0.0020003489 0.001080342 -0.00044147825 -0.0028400393 -0.0009207502 0.0007558602 -0.0030365372 -0.0042118635 -0.0013055268 0.0034132388 0.0006311398 0.000105206505 -0.004708284 -0.004113652 0.0023734749 0.003800265 0.0013991251 0.0016175866 0.0039934623 -0.0049497182 -0.0018343204 0.0015973842 -0.00022657687 0.0038979927 0.004251077 0.0030809157 0.0029447575 0.00044899987
CTCGTGCTGATCGTGCGTGGGGCGGGCCCGGCGTCCTCCACCCTGGCGCCGCGGGGGCGCGCCCACTCCCCCCCTCATCCGCCCGGCGTCATCCAGCACGC 0.003213192 -0.0043815253 -0.0040942514 -0.0014240465 0.0019710956 0.0047504883 0.00037836863 -0.0017545704 0.0049634287 0.004645861 0.0029137593 0.002180831 -0.0039476664 0.0043264627 0.004050092 0.0031861372 -0.0037776432 -0.0031039368 0.0042332564 0.003232468 0.0042443704 -0.00087398477 0.0030836274 -0.0048568994 -1.7792509e-05 0.0012707638 0.0035658246 0.004976877 0.0003474057 -0.0017762637 0.0018217108 -0.0025713984 0.00078118435 0.002454346 -0.0034542424 0.0049890457 0.0029883035 -0.000861565 0.002484321 -0.00092557026 -0.0011570943 -0.0049553537 0.0038786994 -0.0043548085 -0.004735328 0.00449726 0.0016057937 -0.0034874347 -0.0014821567 -0.0046977354 -0.0017928046 -0.0034373966 0.0023573798 0.0011345122 0.0033783694 -0.0014335822 0.0022105845 0.0038064593 0.0016923039 0.0034488665 -0.0016630391 0.0034731298 -0.0012610847 0.0030093733 0.0031112088 -0.0048590726 0.0028652633 -0.004905788 0.0026822067 0.0045802724 0.0034123063 -0.001144382 0.0017080761 -0.0001550138 -0.0019252935 -0.0024562434 2.0558962e-05 0.002042298 0.0009548101 -0.0035532417 -0.0031934031 -0.0029528039 0.0017220813 0.0020980309 -0.0002899615 -0.0026282351 0.0010251447 -0.0013878169 0.00039098572 0.0016806929 0.0012120518 -0.002661616 -0.0049632234 -0.004021309 -0.00067457795 0.002792372 -0.0006691876 0.0007355135 0.0034963323 -0.000121610385
AAAGAGCCCCAGGCCTGCAACTCAACCATGGACCCCAGCCCTCTGCTATCTTGTAGACACAGCTCTTTGTTTGGGCCTCAACAAGTGCTGCGAGCTCAAGC -0.0016023827 -0.0018971559 0.0026742816 -0.0033397232 0.0008272901 0.0010466117 0.004082723 -0.0044260756 -0.0032473688 -0.004885915 0.0026155862 0.004754249 -0.003426532 -0.0033878328 0.0045988597 -0.0027735708 0.0038276468 -0.0035249316 -0.00471105 -0.0030668625 -0.0020313433 0.0044254526 0.003819383 -0.0014166284 -0.004455478 0.003622074 0.0029499184 0.0029364363 -0.004453395 -0.0018216107 -0.000357218 0.000298606 0.004885874 0.0027663705 0.00084008975 -0.0027691035 0.000853552 0.00022906202 0.0014015605 -0.004641664 0.0030450139 0.0038209485 0.001593818 0.001805885 -0.0040759714 -0.0006144519 0.0027879935 -0.0035274068 0.0019178907 -0.004777889 -0.0011945178 0.0010675882 0.0042076455 4.1361716e-05 -0.0019996467 0.00045525175 -0.0018170169 0.0013218649 -0.00034076392 -0.0039905454 0.0037627064 -0.003975004 -0.0022163517 -0.0009014586 -0.0033191226 -0.001612178 0.0006158321 0.0019879607 0.0013133917 -0.0019383712 0.0019256311 0.00042611358 -0.0035726102 -4.0498195e-05 0.0046349014 0.002916787 -0.0015325444 -0.0031768077 0.003960524 -0.0046762214 -0.00052287505 -0.0022444308 -0.0006843532 0.0006933181 -0.0029973963 -0.0029050515 0.0046577444 -0.0017301672 -0.0005252262 0.0009600497 -0.00061726297 -0.001793529 -0.0027057624 -0.0013200962 0.0017414101 0.00059534144 -0.0017360798 -0.00045744274 -0.0035805786 -0.00024545746
CCCGCGACGCCGGAGGTGAAGGTGGCTTGCTCCGAAGATGTGGACTTGCCCTGCACCGCCCCCTGGGATCCGCAGGTTCCCTACACGGTCTCCTGGGTCAA -0.0025367632 0.0022059001 0.0007094215 -0.003624056 -0.0029022652 -0.004767115 0.0019157357 0.0048209648 -0.0015855428 0.0010175598 0.0023772907 0.0035931098 0.0025794103 0.0012868092 0.0049511204 0.0027929447 0.0004889523 0.0023209783 0.0018553666 -0.0019527155 0.0013303845 -0.0011592582 -0.0022776 0.0010531959 -0.0012382321 0.00093881163 -0.0038485439 -0.00059448305 -0.0034633426 -0.0048198053 -0.0038172982 0.0013579828 -0.0023145361 -0.0040383777 -0.0048311506 -0.0031960562 -0.0049570487 0.004037807 -0.0028262623 0.0047156573 -0.0023424227 -0.0008395903 0.0030149797 -0.0021983092 -0.003159154 0.0019993316 -0.0013108968 -8.6137996e-05 0.00017040478 0.0023004068 -0.0025320412 -0.004530179 -0.0048032016 0.002809622 0.0012957103 -0.004627152 -0.0028790655 -0.0046389145 -0.0036095947 -0.0022068035 -0.0038902834 0.0043103853 0.0036525596 -0.0032911103 -0.0049471594 -0.0029542106 0.002249216 0.0018157066 -0.003684261 0.00038777743 7.5152595e-05 -0.0047603897 0.0023299984 0.0036400065 -0.00014594848 -0.0009804025 0.0008008789 -0.00085212337 0.0029357735 0.0039963312 -0.0018382571 0.0024353876 0.0012439766 -2.7511946e-05 -0.0025696685 -0.0029517228 -0.0042535034 -0.0026583183 0.0043631443 0.0007086882 0.003857559 0.0038461003 0.0028313794 0.0044833804 0.004212041 0.0038083822 0.0039179684 0.0015981385 0.00218831 -0.0013631994
CCCAGGGCAAGAAAGAGGGGCCTTGCATTAGGGGGGCCATGGTTCGGCCCAGGCAGAGCTGCCTGGTAAGGGCCGCAGATGGCCCTGAAGTGTCTAGGCAA 0.0011503296 -0.0028113713 0.003397866 -0.0036815586 0.00240906 0.0037961293 -0.0024865142 -0.004590748 0.004742535 0.0049930066 0.0033567334 -0.0024513886 -0.00456581 -0.0049303495 0.0043574004 -0.0023631426 0.004704891 -0.0011590341 0.0022093456 -0.0033332696 -0.0030843015 -0.0010941438 -0.0015356829 0.004615927 -0.004432898 -0.00027296558 -0.0035579118 0.004916543 -0.0002240628 0.0034639132 0.00048645318 0.004600294 -0.0019692325 0.00017903734 0.0034057077 0.00082715304 -0.0026190446 0.0018834597 -0.0042616376 0.0036841733 -0.0005480533 -0.0014440808 0.00030048148 0.00090556324 0.002845749 0.0025943303 -0.0008601797 0.00153459 0.0035316662 -0.004542393 0.0037802074 -0.0032322365 6.439455e-05 0.0013978215 0.0032631534 0.00433128 -0.00073594373 0.001704204 -0.00051114993 -0.0038976278 0.00049166 0.0010010209 -0.0046813283 -0.0043119565 0.0022326966 -0.002858889 -0.0038363577 0.0015656519 -0.002846567 0.0036866753 0.004781409 -0.0023482249 -0.002974483 -0.0044957045 -0.0026747552 -0.0033756725 -0.0020015026 -0.0012495759 0.0039704437 -0.00024509756 -0.00067978963 0.0026914047 0.0034604345 0.003947867 0.00022215041 -0.0015059094 -0.0039836043 -0.0021252485 -0.0032008654 0.00035107124 -0.0025858795 -0.0047746403 -0.0032062938 0.0011829628 -0.003552837 -0.0046679303 0.00026415076 0.002347005 0.00067770446 0.0011389359
TAAGGCATGGTGGGAAGTGGGGCTCCTGGGTGAGCCAATTATTCTGGATTTATTACAGCTATTGAGTTCACCAATTGGCACAATTGCATGCTCTGTAGGGA 0.0012844857 -0.00046291112 0.0017308814 -0.0017918901 -0.0003006815 0.0010708635 0.004256793 -0.0008457578 0.0044902526 0.0010266628 0.00084494706 0.0006407277 -0.0030082273 0.0042485707 0.0014687796 -0.0021753698 0.0029640107 -0.0021460322 -0.0007878197 -0.0039280285 -0.00024633692 0.004714369 0.00065644825 -0.0032392917 -0.003236244 6.35496e-05 9.0743226e-05 0.00014171355 0.0032546574 -0.0011598333 0.0010651372 -0.0010711236 -0.004908718 -0.0022167743 -0.00068765925 -0.0026314927 -0.0032465851 0.0011421893 -0.0046570944 0.00458315 -0.0012517999 0.00054983597 0.0037549715 0.0026468455 -0.0038187308 0.0030809972 0.0010635804 -0.002283047 0.0030539446 0.0033784728 0.00030196155 -0.0038685233 0.0023622157 -0.0021445446 -0.0008004628 0.001053082 -0.0013768267 -1.1340733e-05 0.003954804 -0.0025511915 0.001647024 0.002952918 -0.0006588585 0.004066484 -0.0033452525 0.0035358917 0.003326361 0.00019250179 -0.004522879 0.004082522 -0.004372512 0.00049997994 0.0010243694 -0.004552102 0.0015497837 0.004992286 -0.00409259 -0.0046784575 0.0043151067 0.0004339632 0.0020911964 0.0037078108 0.002085664 -0.0026544007 0.0020942332 -0.0037657612 0.0028866597 -0.0020323568 0.0012721822 0.0049087615 0.0034321183 -0.002315042 0.0016695635 0.0018458467 0.0028931429 0.0033855482 -0.004498604 -0.002122124 -0.0037244498 0.0025078403
TCAGCGCATCTTCTTAGAAGGCTAAGAAAGTCACTCAAGGGATTTTGTTCCCGATCCAGGTAGTGGACAAGTTGTTTCTCTGGAAGGACTGGCATAGTGTT -0.0013217349 0.002587747 -0.0039949305 0.0015111612 -0.00086802716 -0.00036421203 0.00487948 -0.0033861948 -0.004381563 -0.0024424363 -0.00030948155 -0.0025059457 0.004439447 -0.0049975733 -0.004826431 -0.0023472216 -0.00013167251 0.0040957793 0.0041271835 -0.0041699675 0.004989944 0.0016172299 -0.00019439035 -0.0030935302 -0.0005714847 -0.0025116664 0.0026292952 0.0035478715 0.00089013285 -0.00037947277 0.0023562675 0.0030193601 0.0038129105 -0.004801932 -0.0013411343 -0.0026314629 -0.0025089085 -0.0016701249 -0.001605505 -0.0012933902 0.0040049287 -0.003409988 0.004410112 0.0041162577 0.0030842093 -0.004928663 0.0022761002 -0.0036569738 -0.0009159787 -0.00035172008 0.0036924083 -0.0010285921 0.00042036927 -0.0037416024 6.752879e-05 -0.004643919 -0.0003374014 -0.0021004325 0.0043647643 0.003300497 -0.0033199128 0.001245838 -0.0015060733 0.0043515237 0.0018396843 -0.002676731 -0.00241151 0.004567338 0.0021572912 -0.00041974362 0.004045027 -0.0021794245 -0.0017320215 0.0034774155 0.0004786887 0.0038848065 -0.0025129581 0.0035013375 -8.5847874e-05 0.00204727 -0.002036745 0.0019061367 0.0024208112 -0.0006081244 -0.0031380437 -0.003237633 -0.002545876 0.0010257129 -0.0035878848 -0.0033312025 -0.001790263 0.001100737 -0.003411254 0.0022516057 0.0010175412 -0.003725582 0.0027807276 -0.0035155339 -0.0015401072 -0.0048130504
CCAAGGTAAGAGCAGGGGCAGCACCGATGGGAAGGGCGTCACGGCGGCCAGGAGGGACTGGGCAGGCCCTGGCACAAGCAGGGGATTAGAGAAGACTCACT 0.0040680487 0.0011088265 -5.4000473e-05 0.0020269558 0.0041897586 -0.00087956514 0.003865279 0.0030995824 -0.0031847367 0.00095991645 -0.0018733895 0.003003913 -0.0023107931 0.0030861506 -0.0012701083 -0.00038416072 0.004823747 0.00045996587 0.0008878909 -0.00034127207 -0.0004987282 0.0027893581 0.002046359 -0.0035702772 -0.0019929525 -0.0031299053 -0.002080911 -0.0042832056 -0.0040320503 0.0007788452 0.0047460455 0.0014255296 -0.003978187 -0.00469716 0.0037732916 0.0040992247 -0.0009592381 -0.0026794553 0.0024239465 -0.004744843 -0.0030337218 0.0018934477 -0.0030846654 0.003075287 -0.004960638 0.0018193555 0.0023211963 -0.0049406057 0.00013921763 -0.0036579631 0.0011072451 -0.0042728167 -0.0007422008 0.00047199128 -0.00013921055 0.0007703772 0.002984038 3.6754325e-05 0.002516454 0.000113968075 -0.0026275718 -0.0010418001 0.0027074958 0.0014995933 -0.0018583428 0.0046384367 0.0032096996 -0.0035208336 0.0021157342 0.0036910016 -0.0036992803 -0.004426914 -0.0046590497 -0.001996522 0.0017107001 0.0016371756 -7.666262e-05 -3.80833e-05 -0.0041352804 -0.004913253 0.00042515548 -0.0037286473 0.00026214693 0.0012990482 -0.0024822035 0.004304388 0.004644246 -0.0015963978 -0.004089789 0.004137842 0.00029860422 0.0035767455 -0.004513564 0.004598937 0.0012027875 0.00064094906 0.00044497004 0.0012919628 -0.004717347 0.004122055
ATCTGCACGCTCAGGCTGTTGGTGGAGGCATGGGCTGGGAATGATGCAGTGCTGAATCCCTTCATGCCCCTCACCTGAGTCTCCACCAGGGGCTCTTCGCA 0.00053933833 -0.0038783832 -0.0007664033 0.0023173983 -0.0010761016 0.0034760493 -0.002323764 -0.0009527311 -0.003447916 2.4026851e-05 -0.0029225773 -0.0007702836 0.0012440978 0.0013284108 0.0047046463 0.0022019404 0.004311192 0.004851147 -0.00047879142 -0.00204794 0.0014934775 0.002708029 0.00033934476 -0.0036928195 0.0025071607 -0.000977932 0.0010542845 -0.002102339 -0.0042704367 0.004449538 0.002945436 0.0002303858 -0.0006178151 -0.0038611481 0.0015113638 0.0017210873 -0.00017850981 0.0048536826 0.0043811756 -0.0005923864 0.00061234436 -0.0043840315 0.0021301277 0.00408684 0.0038347957 0.0032427276 0.0024924893 -0.0010255877 0.00029950825 -0.0047345124 -0.0041319504 -0.002372602 0.0022157945 -0.003993118 0.00176805 0.0030581797 0.0014184295 0.0006706921 0.001641128 0.003633073 0.0043260325 0.0017004143 -0.0018541754 0.002395876 -0.002343137 0.00080942176 -0.0017786609 -0.0031531746 -0.0038500333 -0.0019339357 0.0005528802 0.0014251742 -0.002988752 -0.003606828 0.0032344589 -0.003602172 -0.0004939577 -0.0016239544 -0.0014627496 -0.00096908206 0.0024794487 0.0005267654 0.00088723726 0.0042438544 0.00063644047 -0.004837733 -0.0034673053 -0.0013446368 0.0031230042 0.00072014617 -0.004927297 0.0045439643 -0.0041550677 -0.0016133946 0.0041713174 -0.0008357955 0.004422616 -0.0004873133 0.0012106545 -0.002676492
GGAGAGTGCTCTTCACAGTTCCAGGGCCAACAGGCCTGTGGGTGTCCCTTGATCATCAGTTGGACCACCTAGCCCCTGTGACATGACCACCCTCACTGACT 0.0013495946 -0.001065573 -0.0041331756 0.0012977391 0.0020964516 -0.0014685205 -0.004848947 0.00083748205 -0.0039750743 6.9790935e-05 -0.00025350272 -0.0049206284 0.0036628642 -0.003922799 -0.0048519345 -0.00354283 -0.0045593875 0.0026692734 0.0041728965 0.004960409 0.0035050751 0.0030235667 -0.00027019525 -0.0014372137 -0.0013458903 -0.0011668534 -0.00428228 -0.0022002805 0.0013066501 0.0012664408 -0.00426133 0.0033139223 0.0023652532 0.00021397449 0.0021364773 0.004777219 -0.0022738522 -0.0012387176 -0.00039481363 0.0014069148 0.0013565916 0.0040031113 -0.0045956085 -0.0015543575 0.001008971 -0.004429329 -0.0011144642 -0.00282311 -0.0030749135 -0.004749222 -0.004455064 -0.0035244874 0.00083220704 -0.0006980727 -0.004451784 -0.0035163711 -0.0011614888 -0.0031234554 -0.00051909796 -0.004049979 -0.00065832085 0.0022640391 -0.0044694273 -0.0015976961 0.0015745857 -0.004929443 0.0020918632 0.0010753848 -0.0015247738 0.004157035 -0.0034529346 0.0037267974 -0.0049076695 -0.0031705273 -0.004486604 -0.0006837941 -0.0049810065 -0.0015533209 0.00152568 -0.0025858788 0.004175883 0.0027072208 -0.001559994 -0.0016161726 -0.0027108153 -0.0012758785 0.0047783656 0.0023809688 0.0005267075 0.0020218976 0.0009548917 -0.0036833312 -0.00191345 -0.0043639406 0.0011438384 0.00048658697 -0.0037498127 -0.0019678264 0.0023881984 0.004948816
CAGCATGGTCTGCTTTGATGCATCTGCCGTGAACAACAGAACAATCTCACAGGGTCAAGGCAAATAGATTGTCAACAAAGGGGAAGTGACCTGTCAACCCA 0.0041786563 0.0012155992 0.0035766517 -0.0029882877 -0.0044844425 -0.0004756251 0.0014688544 -0.002930899 0.004769237 -0.0022706073 -0.0007777448 0.00060282747 0.0049251174 -0.002338129 0.003381659 -0.0019159636 0.0017750481 0.001647973 -0.0029987087 -0.0009657442 0.0033895692 -0.0029322878 -0.0017281519 -0.0047991113 0.0024331266 -3.964772e-05 0.0040711737 -0.0015704052 0.004104849 -0.003986954 -0.00021306593 -0.00267293 -0.0044358172 0.0044280975 -0.0036490592 0.003711773 -0.00027938816 0.001508838 8.370415e-06 0.0030796041 0.003582485 0.0015793012 0.00038813878 0.0048615574 0.0045415023 0.0032301499 -0.0026899527 -0.002142109 0.0031830496 0.0048053344 -0.0017803521 -0.002090312 -0.0039393455 -0.0019565397 7.391404e-05 -0.002824078 -0.0021449989 -0.0040217876 0.004742887 0.0031378563 0.0028632514 0.004528534 -0.004551358 0.0049942 0.0012755066 -0.0011487287 -0.0030922466 -0.0022030117 -0.004653466 0.0009368716 -0.0009122369 -0.0015129393 -0.0026710061 -0.0024587933 0.0013655948 -0.00057740306 0.0028372933 0.0017385326 0.004303508 0.0026953318 -0.004925617 -0.002561305 -0.0019886338 0.0041253758 0.0034663933 0.001299478 0.0026325677 -0.0010590926 0.00023401133 -0.0023972893 0.0047972985 -0.00023186002 0.0024251027 -0.0004532419 -0.0021063231 0.0013680174 -0.003730344 -0.0024216082 -0.00281421 -0.0024848413
TTAACTATAGTACCTTAAAATATTCAAATACAACAATACTCCCACCTAGTGGATAAAAGGAAAATGCTTGGCTTATTTTGGTTGTGAATAATACCACCATA 0.0029151384 0.003265892 0.0018760201 0.0029122 -0.0017141545 -0.0033054103 0.0006170196 0.004888905 0.002824316 0.0018843908 8.983243e-07 -0.0039356854 -8.238856e-05 -0.0038546976 0.0006037782 0.002429479 -0.004888802 -0.0029378973 0.0020952115 0.0033162902 0.0024195255 -0.0010997389 0.004708191 -0.0022570796 0.0035851279 0.004799263 -0.0031997808 -0.0037885557 0.0010538872 0.0018141895 0.0036520287 -0.0029614447 -0.0010125181 -0.0022204865 -0.0014204539 0.0029792758 -0.0022588503 0.0009644026 -0.0021495034 -0.002893679 0.0007116859 -0.0033268845 0.0045669605 -0.0003291422 0.00025113454 0.0045868824 -0.0031408824 -0.0037213915 -0.00211851 0.004904455 0.0010053304 -0.0032547624 -0.0006600917 0.0048449715 0.0004381363 -0.0032841756 0.0016044531 0.00050086144 0.0020805106 -0.0017224319 0.0018261713 -0.0019657437 -0.00352285 -0.0025053606 -0.000991608 -0.003784256 0.0018144079 -0.0033798937 -0.0013621417 -0.0045132814 -0.0029548309 0.0046863407 -0.003732366 -0.003953897 0.0013924262 0.003955209 -0.004500366 -0.0042160028 0.00434805 0.0011992046 0.002874412 -0.0048965807 -0.0046004835 -0.0036118992 -9.526597e-05 0.0016412887 -0.0023624473 0.004806788 -0.00067690894 -0.0005826491 -0.0040205214 0.0012401532 -0.0023362085 -0.00093785604 0.00071090774 -0.0015140543 0.0005600869 -0.0036588586 -0.0049732965 -0.0013140265
GTGTGTCCAGGACTGGTGGGGCTCGGTGGTAGGTCTGAGGTCCAGTCCCTGGAGGCTCTCCCAGCTCCCAGGGGCACTGACACAGGAGGGGGAACTAGGGC -0.003604205 -0.0016532812 0.0037458888 0.0012689246 0.001065874 -0.0029622458 -0.0010963134 0.0003041515 -0.0010249284 0.000887474 -0.0039314334 -0.0049890066 0.0015833486 0.0011196323 0.004211079 -0.0040508998 0.004631876 -0.0017824089 0.002305738 -0.0043405346 -0.00027052333 0.004303855 -0.0006933548 -0.0016957499 0.0029840125 -0.0013227692 0.0027922653 0.00118776 0.003836148 0.0024620586 -0.0006373054 0.0010669112 0.00011179696 -0.0027153478 0.0043988773 -0.0024497388 -0.0037131761 0.004207456 -0.0032389443 -0.0021695371 -0.0049088756 0.0028432312 0.0011288207 -0.00059323054 -0.0022401845 -0.0018747825 -0.0020461634 0.0026137596 -0.0010059855 0.00093740947 0.0019483973 0.002157611 -0.0033368194 -0.0013775137 -0.0025616197 -0.0016036978 0.0044638617 -0.001298685 0.00061345095 0.0015687376 0.0037346717 -0.0030086355 -0.0019851392 -0.0024402644 0.0002548591 0.0027551602 0.004243549 -0.001269392 0.0022382957 0.003365529 0.0033336398 -0.0030789126 0.0017278255 0.0022232123 0.0049709375 -0.00056342717 -0.004423828 0.0038296543 0.00090380217 0.0018494409 0.0037793857 0.0039756536 0.0005378282 -0.0001378448 -0.0013985359 0.00087940466 -0.0046119113 -0.0033892368 0.0043036244 -0.00022493054 -0.004239824 -6.453677e-06 -0.00050079694 -0.000328809 -0.0004110196 -0.003951262 -0.003398188 -0.0013671396 0.0028572099 0.0029330263
GTCCCCGTGGGGCCGCGCTGTCCGCGGTTCGCCCGCCCACGCACCTGGTGCAGTAACACATTAGTGTCGGGCAGCAAGTAGTGCGGTTGCGGGCAGACGCT 0.0041103614 0.00034454826 -0.004137137 0.003604487 0.0025406326 -0.00061959494 0.0013937163 -0.002399153 -0.0018453192 0.0042379415 -0.004427245 -0.0023784812 -0.0045520663 -0.004528997 0.0032377571 -0.0001338873 0.0017110987 0.0009049143 -0.00019582544 -0.0023721214 -0.0012104982 0.003809562 0.003468158 -0.0048535364 -0.0013970387 -0.0040895245 0.00018659081 -0.00050247443 0.0032271245 -0.0026859671 0.004766438 -0.0012119466 0.0017049154 0.002148807 0.0023551735 0.0030405272 0.004234028 -0.0023678264 -0.00041677733 0.00351123 0.0007496037 0.0012423091 -0.0035818445 0.0027988832 0.002435125 0.0023600652 -0.0029157302 -0.0012183303 0.0024273924 -0.0035353615 -6.569594e-05 -0.0045475047 -0.0003388813 0.0029042542 0.0014263279 0.0045714243 0.0015988089 0.0033153368 -0.00079426053 -0.00028648862 -0.004698863 0.004203539 0.0017446832 -0.0016680442 0.0016025638 0.004039145 -0.0026666028 0.000439912 0.00060124166 -0.001333212 -0.004998723 0.0021075876 0.0023846577 0.002040556 -0.0015793203 -0.003171958 0.002280874 -0.0032802566 -0.0037047397 0.0035744715 -0.002476133 -0.0022929632 0.0015677294 0.0023305032 0.0033545813 -0.00033240562 0.002916225 0.004462475 -0.0014811998 0.002340186 3.2912067e-05 0.002723194 0.0021226306 0.0022690052 -0.00090279663 -0.0018616216 0.004836677 0.0010019698 -0.0045678443 -0.002692246
AAACTGAATTCCAGGCTGCTCAACAGACCCTGTCCTTGAGCTGAGGGACAGACCCCCTTAGCCCACAGCCAGCTTTTCTATTCTCCTGGCTGGAAGGGTAG 0.002801687 0.0047031245 0.0017889373 -0.004147946 0.0017993051 -0.0038217362 -0.002392073 -0.003744854 0.0021478706 0.0016582283 -0.0017957462 -0.0032352835 0.0045777606 0.0022789743 -0.0033382755 0.00066464796 -0.00018245656 0.00471219 -0.0037627257 -0.0019666061 -0.0015572377 0.0016326014 -0.00090358185 -0.0039348886 0.004494891 -0.0023879176 -0.0031612378 -0.00138934 -0.00041515188 0.0035706204 0.0015900651 -0.0002944479 0.0010751204 0.0021844143 0.001380909 -0.00035968414 0.0023879183 -0.0034578354 0.0020546655 -0.0022962175 -0.0027657268 -0.0025955858 -0.0019236425 -0.0017540782 -0.0010389998 -0.0041347323 0.0043915776 -0.0025455323 0.0003205998 0.00241137 -0.00027373194 0.0037706336 4.0402578e-05 -0.0015370322 0.0024948507 -0.0037840165 0.0010327767 -0.0047434745 5.147399e-05 0.0033127137 -0.0045976704 0.0038499755 0.0027306336 0.0014231686 -0.0039489064 -0.0013429723 0.00039698934 -0.00084702426 -0.0006223685 0.0047280635 0.0015591679 -0.0008598584 0.0016190781 -0.0042509194 -0.0035032537 -0.00034637688 -0.0045545576 0.0042645405 -0.00466396 -0.0032188091 0.0015032915 0.0014526084 -0.0017238931 0.00074870075 -0.0011563025 -0.0031177513 0.00044112586 0.0028572646 -0.00025393613 0.00050540676 0.0029586565 0.0039038265 0.0034965428 -0.00046038578 0.0046310965 -0.0015106898 -0.0038020415 -0.003672271 -0.003785347 -0.0008247288
GGCTTTGGGTGGGGGTGGAAAGGATGTTTGTTTCTTAGGCGATTTGCAGTCTGATCCTGACCCAGAAGTGGGCAGCCCAGGGCCAAGAGTGTGGTGGATAC 0.0018743963 -0.0010177932 3.7435933e-05 -0.0027216852 -0.0045803967 -0.0011134705 -0.0021379187 -0.002435919 -0.00032886516 -0.001040613 0.003419717 -0.0047483463 0.0021758322 -0.00068667205 0.0024401036 -0.0028986218 0.0038405922 -0.0010049581 -0.0015462838 -0.004818607 -0.0039710486 -0.00017112352 -0.00011118911 0.0023780735 9.897048e-05 -0.0031476724 -0.003275787 0.001271989 -0.00044751176 0.0046948544 0.0014334692 0.0029927874 0.0014918846 0.0047971834 -0.0038630264 -0.00064016174 -0.004421838 0.00026528572 0.0013118477 0.00262859 0.00040505442 -0.004343516 0.0033926426 -0.0017025942 0.0012703608 0.0018263194 -0.00039291047 0.0020767066 0.00046184228 -0.0011237633 0.0020540494 0.004738487 -0.0037640205 0.00237918 -0.0016333697 0.0029412773 0.004445378 -0.0004096841 0.00038676793 0.00086474244 6.072309e-06 -0.004965697 0.0022229594 0.004329021 0.0032800392 0.0041290843 -0.00020702482 -0.0046673855 0.00033710033 0.0039829644 0.003087483 -0.00019595442 -0.002310502 0.00019513589 -0.0039994167 -0.0020332215 -0.0010986013 0.0002283775 -0.0003868785 0.0049512717 0.0032169037 -0.0021750769 -0.0010977563 -0.0034856608 1.1877204e-05 -0.0033699367 -0.0032835572 -0.00062722195 -0.0047923755 0.0034727925 -0.0015259022 -0.0026143729 -0.0036051248 -0.0048777536 -0.004511277 -0.0001690392 0.0015009006 -0.0039087366 -0.00264894 -0.001687225
TCCAAAGGCAAGGCAGCCATTTAGCATTGGTGTAAAGCAGAAGACCCGTTGAACTCAGACTAGCCCAAGTAAAAAGTCGGCCAATAAACATAGGCAGATCA -0.0023371675 -0.001320944 -0.0023745804 0.0042910534 -0.002922288 -0.0024369732 -0.004341922 0.0011102713 -0.0027130984 0.0025503745 -0.00016337288 0.0048859855 0.0009899965 -0.0027364315 0.0018298472 -0.0016270423 0.003052138 -0.0026509196 -0.00026859192 -0.00363703 -0.0029299879 0.0024005906 -0.0023119107 -0.0041592144 -0.002931202 0.0024403767 0.0019290696 -0.0029295494 0.0033026899 -0.0041195643 -0.0022251992 0.002736206 0.0039047848 -0.002223906 -0.0010390911 0.0032562204 0.0029981919 0.002453551 -0.00033093532 0.00350392 -0.0019289306 -0.0048825988 -0.004198922 0.00490139 0.0015989704 -0.0019034733 -0.0030863008 -0.00048870564 0.0041163866 -0.004913808 0.0032473924 0.0038920129 -0.00027778762 0.0034932925 -0.0010419621 -0.0021519908 0.004767055 0.0043632463 -0.0023454516 -0.001623323 -0.002155398 0.0014930307 0.0008582481 -0.00050153374 -0.0019527032 -0.0040231603 0.0041987034 -0.003224627 -0.0014468184 -0.0018204654 0.004400415 -0.00062408345 0.0031836359 0.00075810944 0.0016667974 -0.000587247 0.0006075341 -0.0011758637 -0.004347962 -0.0033769407 0.0036279443 0.0043948786 0.0006559762 0.0009993304 -0.0014433169 0.0039023543 0.0026905083 -0.0011650478 0.0013308662 -0.0028010437 0.004864402 0.00060122396 -0.002039481 0.0031829374 0.0025669034 0.003152056 0.00044449337 -0.0040653716 0.0008605525 0.0033796849
ACATGGAATGAAGGATGAGAGGCAGTGAACCAGTGCTCAGAAGTCAGCTCACCAGGCTATGGTTGACCAGACCCAGCTGGCCCACTGCAGAACCTCCTCCT -0.0024904467 -0.0014049017 -0.0028436887 -0.00090625434 0.0031052546 0.0023998832 -0.0022738355 0.0034729668 -0.0027493401 -0.0034926368 0.0033859247 0.0032369455 0.00022860276 0.0008415613 0.0016328883 -0.0032780825 -0.00268913 0.0017833312 0.0038596094 -0.00021601528 0.0018746142 -0.0017585903 0.0033080808 0.0028083154 -0.003973626 0.00067386415 -0.0016254762 0.0044575995 0.0027976406 -0.0038367196 -0.000930244 0.0018711272 0.003868629 0.003791558 -0.0046974234 -0.0044688545 0.0022860449 -0.0041027316 -0.0018340081 0.004718289 -0.0043707998 -0.0024051804 6.435213e-05 0.0014727999 0.0026984182 0.0039859083 0.0038874294 -0.0031036898 0.00077853684 0.0024481986 -0.0037478579 0.0014403381 0.001141756 -0.0038399985 0.0015520734 -0.004415606 0.002061105 -0.0044986205 0.0016308045 -0.00042544527 -0.0039090533 0.0009496353 0.0040658712 -0.0036054754 -5.3668027e-05 -0.00490051 0.004544826 0.004340432 -0.0046149944 0.0010939639 -0.00051791535 -0.0045334594 0.004349634 -0.003879858 0.0023097196 -0.003937461 -0.0013322149 0.001864735 -0.0047745933 0.0015653927 -0.002183836 -0.002110736 0.0030927323 -0.0011657606 0.00017905528 -0.0038317607 0.002788468 0.002091841 0.002278114 -0.0011131119 0.0011288495 -0.004920561 0.003622007 -0.0033998026 -6.005931e-05 -0.0026677025 -0.0015931386 0.0039575216 0.003985373 0.00020514285
CCTGTGCGAGAGAGCATATAGGCTCCAAGGGGGGCGGTAGACTAGCCCAGGACCGTTCCCCACAGAGCAGTGTCAGAAACTGCCCCGCCCCTGCTCTGGAG -0.0020916227 -0.004657903 0.004349826 0.0031336239 0.0021388903 -0.00067444466 -0.0042216247 -0.0032208315 -0.0022606994 -0.002413637 -0.0047974777 0.0049710996 0.0011332124 0.0018076912 0.0013261196 0.0045141815 -0.002581728 -0.0048518507 0.002340576 -0.0024746417 0.0011037493 0.00026369348 -0.0030641356 -0.0025192741 -0.00134951 -0.0037489887 0.003235125 0.0011177831 0.0017638642 -0.0015818148 -0.0035970234 -0.0020026697 0.004855464 -0.0027704528 -0.00480888 -0.0023723922 0.0042069065 0.0020225877 -0.004594423 -0.002640734 0.0012672789 -0.0005247861 0.0010838913 -0.0007249651 0.0042625573 0.0020514708 0.0048445296 0.0020094102 -0.0012609632 -0.0016904831 0.0017755431 0.0019515402 0.0032416766 0.00092502334 0.0049180696 0.0009061393 -0.001080356 -0.0026080185 -0.00070785225 0.0022804784 -0.00074462104 0.004854646 -0.0034597865 -0.0014679119 -0.0045879083 0.0034012415 -0.003835847 0.0017208813 -3.167609e-05 0.002340066 -0.002037984 -0.004547071 -0.0012192103 -0.0022540104 -0.0018099498 -0.0021028658 0.004642676 -0.0033869268 -0.00047069555 0.0014952262 -0.0002877266 0.0008109843 0.001636347 -0.002383832 -0.0014336474 0.004675016 -0.002721475 -0.0022433917 -0.00045591826 -0.004372767 -0.0027175418 -0.00014770938 -0.0030328617 0.00039014634 0.00077181257 -0.0043013897 -0.0008069238 -0.0016979506 -0.0048253224 0.0026924133
TGAGAATGGAGTTAGGGGCAATCTAAAATGTGACAAACTCTTCAGCCTCTCTCAATCTGGGATTCAGCTATACCTTTGGAACCTTAGGCCCTGAGTACAAT -0.0012454741 -0.0036862832 -0.003316789 0.00060378475 -0.0043204445 -0.0033812872 0.004683595 0.0028336272 -0.0030348958 0.0024369766 -0.0026081372 0.0035906518 -0.0034300857 0.004412773 0.00040262286 0.003516938 0.0019999964 0.00024158394 0.002058455 0.00013210016 -0.00026625066 -0.003226084 0.003192014 1.4332283e-05 -0.00042574256 0.0015686656 0.0030799527 0.0044353316 0.0049389233 -0.0038385063 -0.000887915 0.003987621 -0.003146164 -0.0039637005 -0.0043568327 -0.003990886 0.0020621158 -0.00063086004 -0.0049190745 -0.000283467 0.00033880427 0.0018646957 -0.0012343319 -0.0030179357 -0.0018422891 0.003509319 0.0030204793 0.0028771353 0.0022233436 -0.0015180383 -0.002408179 -0.0010273801 -0.002680691 0.0041502947 0.0025288656 0.004323834 -0.0038056546 0.0034063887 0.0013034758 0.002084037 0.002421945 -0.0019136246 -0.002197055 0.004795457 -0.003562201 0.0031740947 -3.1132342e-05 -0.0013273191 -0.0044195983 0.0029268079 -0.00066601194 -0.0036107358 -0.0009503293 -0.0032894695 -0.0034415068 0.00449897 0.004424882 0.0016274496 -0.0031957624 0.000981002 -0.0038723773 0.0020532329 0.004504196 -0.0007021071 0.0034677598 -0.00077817996 -0.0047527594 -5.609265e-05 -0.00086318795 -0.003805465 -0.00051436556 0.004632397 -0.0004557518 -0.004737829 -0.00032001053 -0.0014391609 -0.0044578416 0.0042861006 -0.00370906 0.0014503194
CCCCAAGTGGTTGAGCAAGAGCAACTGCTGGATCTTCGAGGCAGGTTAGAGTTGTTTCCAGACTGGCAGCCTGGATCTCACTTCCTCTTGGGTGTTTCTGA -0.0012528619 0.0016333224 -0.0035228566 0.0040695583 -0.0009077252 -0.0022203429 0.0012222774 0.0049431613 0.0047664545 0.002017939 0.0036639986 0.0011060728 0.0037734143 -0.0041300342 -0.002593729 -0.0018740018 -0.0034576862 -0.0014601154 0.0014372249 -0.0037688047 0.0040096072 -0.0047216075 0.000106636304 -0.0035547747 -0.0017460897 0.0033016724 0.0030111636 -0.003093518 0.0024397485 0.0041596093 0.0030893981 0.0009301429 -0.0009339641 0.00048693744 0.0015486928 -0.00027181307 -0.0031661922 -0.0005138795 -0.002874337 0.002929873 -0.00063878624 -0.0044042505 0.0046111224 0.0045864126 0.0025524048 0.0010820772 -0.0016996542 0.0044804756 -0.0017090238 -0.0008495102 -0.002426305 -0.0034782952 0.0031581863 0.0037172865 -0.0012913423 -0.0021306344 -0.004584918 0.00083483744 -0.0026914203 0.0025400482 -0.0029852109 0.0030994473 0.0040721633 0.0020312772 0.004154632 0.004026626 0.0041507143 0.0047606733 -0.0046666088 -0.003344562 -0.0038790952 -0.0022906882 -0.0013985906 -0.0016973468 -0.0041386853 -0.0028888232 -0.0032554888 -0.00047837364 -0.0015957552 -0.003149111 -0.0018914869 0.0009774009 -0.0025852525 -0.0026591348 -0.0018995787 0.0033985472 -0.004890827 0.0013961763 0.0012740974 0.0043896236 -0.0047696577 -0.0027180703 -1.6012125e-05 0.002434718 0.0040495847 -0.0007397818 -0.0043569175 0.0030646285 -0.0010037321 0.0029730115
AGATCCAACTTGAGTACATTCCCTGAGCTATGGCCCACATTAGGTCTTGCTTATGCTAAGGAGCAGAGGTTGACTTCTCCTCTCATCTCTGGTGAGGGGTC -0.004792156 -0.0034809427 0.0030909886 0.0042183893 -0.00338996 0.0031045116 -0.0027289288 0.0017905815 0.00071589695 -0.0014319976 0.0049181366 0.0010680469 -0.004691173 0.0038758747 -0.004928415 -0.0010407699 -0.0024273174 -0.0035488 0.0046491898 -0.004092644 0.0045030485 0.0016888713 0.0020011857 0.00029006414 0.0023978034 -0.0031789665 -0.0048902 0.0046703946 -0.0032923908 -0.0021659867 0.0023292997 -0.0007789557 -0.00499504 -0.0034650122 0.0037270563 0.00025971344 0.0045713983 -0.003117168 -0.00035011102 -0.00014089237 -0.0028290323 0.000638591 -0.004688629 -0.0006667668 -0.0045622545 -0.0012271013 0.0006025133 -0.0032923357 0.0045970175 -0.002864221 -0.0037512493 0.00426872 -0.0021595326 -0.004120348 -0.0017770774 0.0043566665 0.0033835177 -0.0046440563 0.0043546627 -0.0018181066 0.0014995591 -0.0023073505 0.00017237039 0.0025297455 0.0017576941 -0.0032407662 -0.0010727065 -0.0037660175 -0.0027588613 -0.0015862987 -0.0011410766 -0.0040660943 -0.0024359263 -0.00072619825 -0.0047807884 0.0009799108 -0.0046567894 -1.0763106e-05 -0.0042987247 -0.0011908875 -0.003435068 -0.0019601132 -0.0019249849 0.0032222278 -0.00046909822 -0.004979069 0.00070075586 -0.0032527219 0.0047761537 -0.0028242178 -0.0022647209 -0.0023247665 0.0026952948 0.000986256 -0.0016804559 0.0011061827 0.0009810812 0.0034138372 0.0047103567 0.0042594755
GCCCACATGGCTGACCTTAGCTGCTGAGTCTGTAGCCCCCTAGAGGTCAAACCAAGGATGGCAAGCGTATGGAAACAGCTGTGGGTTCCCTGAACACGGTG 0.003626709 0.00028458654 0.003145157 0.0037459708 0.0026384813 -8.202637e-05 -0.0003818121 -0.0011690399 0.0002493831 0.0004890415 0.0008230478 -0.001353695 0.0028290353 0.003228118 -0.003638779 0.0025597098 0.00041619435 -0.0028812531 -0.00061684626 -0.0016463258 0.0033370524 -0.0043386337 -0.0021329122 -1.8978611e-05 0.0029945904 -0.0024815677 -0.0026545015 -0.0010798817 -0.0017866922 -0.0014822212 0.003913995 0.00016180515 -0.004194717 -0.0040428587 0.0048529417 -0.0043837596 -0.002387075 -0.0028185742 -0.0032111234 0.001772886 -0.003506623 -0.002639239 0.0042665005 0.0016313189 -0.0020299586 0.0029176367 -0.0019040892 0.0014595921 0.0031146745 0.0016171356 -0.0040077697 0.0034908068 0.002433842 -0.0034129552 -0.00130386 -0.0006581191 -0.0025335536 0.0024996775 0.0009278693 0.0029383302 0.0036293962 0.0011597845 -0.004264051 0.0009117132 -0.00071772403 0.0021443528 0.0011205063 0.004908101 0.002585749 0.002088794 -0.00085349305 -0.0016184587 0.002301604 -0.0030162584 0.0040229596 0.00064685487 -0.0038536037 -0.0045500067 -0.0017143738 0.0014713774 -0.004357225 0.0015936799 0.0005509012 0.001612911 -0.0022674876 -0.003340307 0.004179485 0.0040489924 0.002580273 -0.0014706354 0.002862739 -0.004818624 0.0024902974 0.004363246 0.0033641334 -0.002785907 0.004962865 0.0036429137 0.002871195 -0.00495449
CTGAATCCTTGTATTAGTGCACCCAACATGTTGAACAGCACAATAACATGGGCACCTACAGGCTTCAATAACCCACAAACATGACAAATAATATTATGCTA -0.004149692 -0.0016172427 -0.004718025 0.0035844326 -0.0023390586 -2.770042e-05 0.004333251 0.002390653 -0.00050977204 0.004118706 -0.0043902793 0.0035310874 0.0016364268 -0.0032844841 -0.0040041483 0.0009816822 -0.003670863 -0.0007902422 -0.0025392773 0.0027720004 -0.0028639487 -0.00045947955 -0.0018651314 0.0025842767 -0.0024453185 0.0016756841 -0.0011234357 -0.0016916153 -0.0014686569 -0.0020612732 0.0011804509 -0.0036772673 -0.004341869 -0.0040982645 -0.00081684056 -0.0039068726 0.0016457804 0.0034497024 0.0037964787 -0.0049578496 0.0026075891 -0.00041721313 -0.0009926079 0.0009782913 0.0038225541 -0.0045306054 -0.001647234 0.0007546624 0.0027161108 -0.00336918 0.0016882763 -0.00015654364 0.0029278663 -0.00061351474 0.0021356712 -0.0033506777 -6.7221554e-05 -0.004848108 0.003353248 -0.0043417024 -0.0026074871 0.0024606113 -0.0049589826 -0.0040163347 0.00294142 -4.728122e-05 0.0016434011 -0.0012085504 -0.0010774144 0.0041799354 -0.0035272986 -0.0015987454 0.0030951635 0.0009851543 -0.00018050487 -0.0011679251 0.0009534478 0.0041807815 -0.004889465 0.0038256408 0.0034299807 -7.9226586e-05 -0.000745785 -0.0019755536 0.004805476 -4.9817852e-05 -0.0021173395 -0.0025271971 0.002705534 -0.0007486059 -0.0047266637 -0.0013572441 0.0008216032 0.0044844653 0.0011092634 -0.00072064163 -0.0033808714 0.0017231817 -0.0032185386 0.0008055878
GTTCATAGCTGTGTGAGCACAGTGGCAACCACATTCAGTGCCCCTACTGGACATCCCCATGTTGCCATAAGACTCAGGTCAGTGTGCTGTGCCACTGTTGT -0.0036461893 0.0041084257 -0.003210823 -0.0026475568 -0.0040547303 0.0015608546 -0.0049242917 -0.003980636 -0.0018550355 -0.0034765222 0.002865177 0.0005888252 0.0028054498 -0.0005784646 0.0040569245 -0.00040434784 -0.003260371 0.003606564 -0.0037645458 -0.0020316099 0.0011335233 -0.0021726144 -0.001859062 -0.0024943494 0.002902561 -0.0034137692 -0.0037254696 -0.0026608023 0.0032334928 -0.0013001737 0.004781825 -0.00044097932 -0.0047651078 -0.0023496165 -0.00034825152 0.0036332828 0.0039561144 -0.0046213553 -0.0006268085 -0.0019114768 -0.0024400475 -0.0033424404 0.0047567254 -0.00041306874 0.002726312 -0.0006608758 6.593977e-05 -0.003943109 -0.0006563386 -0.0032398219 -0.0027593449 -1.436845e-05 0.0017120491 0.00028293784 0.0017700462 -0.0017733516 0.0047212597 -0.0030774781 -0.0019377229 -0.0018913564 -0.0039681713 -0.0015543156 -0.0020589374 -0.0045824656 -0.000722141 0.0013912575 0.0005076326 0.0002726736 0.00048186333 0.002181391 -0.0038852955 0.0017724432 0.0024545956 -0.0028628076 -0.0033588621 -0.00018838282 0.0020573928 -0.00060846756 -0.0012062797 0.004151857 0.0015160125 -0.0009382813 0.0046954504 5.403799e-05 0.0025294698 0.0011303092 -0.00403037 -0.0048883045 0.0021708251 0.002800137 0.00097338995 -0.004761379 0.0015163609 -0.0046555493 0.0035058816 0.004170305 0.0014799379 -0.0039345087 0.0047016074 0.003613387
GGAGGACCCCTAAGAGTGTCTGCATGTAAAGGGAGATGCAACCACAGAGGGTGATGAGTGAGGCCCACTGCCCTGGAGGGAGTTAAACACAACCAAGAAGG -0.0023364187 -0.0023470917 0.0039061923 0.004153995 -0.0023203515 -0.002654877 -0.0002112757 0.0012253952 -0.0046604173 0.0011855304 -0.00031678815 -0.00021473186 0.0013827125 -0.0032680207 0.0017016907 -0.00054239074 -0.0025860558 -0.0014597629 0.0022667765 -0.0034006136 -0.0049559404 0.0027561276 0.0016497786 0.0011975309 -0.003083742 0.0030403335 -0.002479642 -0.0007957279 0.0018802655 -0.003858683 -0.0018794495 -0.001613336 -0.0037800532 0.0042443164 -0.0011360853 0.002888418 -0.00047813487 0.0037456586 -0.0034940238 0.0002864624 -0.004840192 -0.00157267 -0.0035763492 -0.002207487 -0.0048831035 0.004846034 0.0029307709 0.0021009208 0.0031118821 0.0037644615 0.0004468645 0.004235761 0.003170094 0.0039380067 0.0012542491 -0.0015104653 0.0015531759 -9.804677e-05 -0.0026867723 -0.0016240464 0.00020568218 0.0021140268 -0.00073953776 0.0018750083 0.0011652621 0.0042642863 -0.004696229 -0.00018808393 0.003446302 -0.0019670508 -0.0021388934 0.003950161 0.0033454134 0.0024537041 0.0031249365 0.004695755 0.0045841727 0.002296272 0.0049524335 0.004360031 -0.0030114204 -0.0016314884 -6.532077e-05 -0.0034677442 -0.0038902496 -0.0009412301 -0.0015084235 0.0026732052 0.004373754 -0.0011944368 -6.145708e-05 -0.0045742877 -0.0033216341 0.0033706592 0.0018715494 -0.0018846479 -0.0013337336 0.0016482882 -0.0019764714 0.0048453757
CTTGCTTTGCCTCAGAAGTTCTACCATTTGACTCATGGAGTGTCCTTCACTACAAACTTCTGTGACTCAGAAAGAGAAAGATGCCCTCACTCCCAACCTTC -0.0026367328 -0.0011293344 0.00497402 -2.9214962e-05 -0.0025412564 0.0005949006 0.0015605463 0.002090888 -0.00046310268 -0.004546662 -0.0009294564 0.0023466996 0.0018583509 0.0034496943 -0.003202845 -0.0010639476 0.0029932065 0.0017709454 0.0024065895 -0.0010116659 -0.0013522696 0.001141335 0.0020000795 0.00202016 0.00017820396 0.0028413995 0.0018285518 0.0025948691 -0.0009758196 0.0007080841 0.003923588 0.003957652 -0.0032595154 -0.0047667073 0.0016458911 -0.0026710746 -0.0017213708 -0.0027943116 -0.0040624114 -0.0025534316 -0.0008903609 0.0014311158 -0.0027723496 0.002407664 -0.00059145037 0.0020178647 -0.0021578998 -0.000110538145 0.0022733307 0.0005165008 0.0047470103 -0.004927278 0.0033140294 -0.00032910056 0.00039206515 0.0017897087 0.0002890558 -0.00034693908 -0.00041965555 -0.0017774598 -0.0017461249 0.0027798577 -0.0026247008 0.00071655045 0.0030809727 0.0048247213 0.0012511571 0.0039606164 0.0023544992 -0.0030046923 -0.0029831799 -0.0003030483 -0.0044821766 -0.0031025906 -0.0007735047 0.0013454644 0.00058387994 -0.0025783102 0.0038434376 0.004704841 -0.003805438 -0.004429098 0.0017612166 0.0012380517 -0.0038403412 -0.0045583826 -0.0011961114 -0.003367071 -0.0026985945 0.00094311027 -0.0038778358 0.0037565753 -0.0005997279 0.0009944466 0.0020913081 -0.00349104 0.0039736964 0.0013147468 -0.00288633 -0.0022588803
CCTGAGCCCCGGCCCCGCCTCGGCCGGCCCCGCCTCGGCCGGGGCGTGGGCTCCGGCTGCAGCTCCGGTCTGCTCTCTTGGCTCCGGAACCCCCGCGGGCG 0.004337327 0.0026355055 0.0036851566 0.0007437913 -0.0021583254 -0.0045025684 0.0038751536 -0.0030902051 0.0006482493 0.0016505301 -0.0037376157 -0.0020258012 0.003233869 -0.001730563 -0.0005071927 0.0010347235 -0.0034923384 0.004516014 -0.0022771663 -0.0021785481 -0.0013609113 -0.003930785 -0.0013799168 0.00497511 -0.004470749 -0.003427734 -4.3740233e-06 0.0039660083 -0.0021016703 -0.004523852 -0.0024252178 0.0035280092 -0.0032010032 0.0021694105 0.0031204098 0.004112449 0.002098088 -5.4843866e-05 0.0049677137 0.0011960606 -0.004869914 0.002220231 -0.0048112217 -0.0017062856 -0.0038669026 -9.1716865e-05 0.001840492 0.0012490695 -0.0010713113 0.0024308474 0.0030750348 6.157749e-05 0.0014924094 -0.0043999907 -0.0013068501 0.0048194556 0.004180993 -0.0028797425 0.0041880272 -0.0042701904 -0.0041175094 0.004930835 -0.004370941 0.0029170197 -0.0035797986 -0.00036996783 0.0044192015 0.0040194113 0.0036293524 -0.00078040303 0.0016237757 0.0005785401 0.0011696214 0.0017100873 -0.00033982494 -0.0015777189 -0.0033269213 -0.0007387774 -0.0029137398 -0.0032725479 0.0048517194 0.00018194092 -0.00063190976 -9.208538e-06 0.002655959 -0.00281383 -0.001519437 -0.0037350794 -0.0012319573 0.0003338547 0.0029545804 0.0013696591 -0.00032905312 0.0018284037 0.0004889568 -0.0034055114 -0.0017287032 0.0044571743 -0.0016004428 0.002374928
AGCGCAGCCACCACTAGTAAGATTCGACACACTTCAAGTGAGAGGCCCACACAGTGTAGCAGTCACAAAAGGGTTGAGTTAGACACTTATTGCTGTAAGCT 0.004218886 -0.002849092 -0.001280052 0.0046993163 0.0036191612 0.0039745513 0.002610072 -0.00089106127 -0.0008048463 -0.004938877 0.0049218973 -0.0036734387 -0.001722715 0.0048021656 0.002206793 0.000298084 0.0037940964 -0.004574087 0.0024772023 0.001521527 0.0011138541 -0.0027984348 -0.00067447725 0.0018931623 -0.00054160506 -0.0021972975 -0.0013120394 0.0047514644 -0.003532559 -0.004229865 0.004915874 -0.00033881623 -0.000993575 -0.0020810256 -0.000613728 -0.001488145 0.0048198868 0.000705868 -0.00023241289 -0.0047371504 0.0028308276 0.0018290858 0.0035720172 0.0009733577 -0.001967047 -0.0044706534 -0.0021980593 -0.0043237363 0.0027933274 -0.00049275224 0.0037937618 -0.0012910524 -0.0028051627 0.0021861552 -0.004738018 -0.004874374 -0.0028656095 0.0033800208 -0.0045761396 -0.0034813199 -0.0046947342 -0.00011419771 0.0005457995 -0.0024951226 0.0046436065 -0.0039616376 -0.0037895362 0.0018391049 -0.0023721904 0.0037489124 0.0032728356 -0.00069908745 0.0038863323 0.0036542332 -0.0015911165 -0.0026621644 -0.00016062193 0.00012247181 0.004353907 -0.0017190297 0.0043570087 -0.0007283301 -0.004681089 -0.0011620603 0.003237399 0.0006279076 -0.004057983 -0.00021326306 -0.001126968 0.003967869 0.003595114 -0.00086210796 0.004485313 0.0021366796 -0.00045436848 0.0042411163 0.0019969887 0.0036071518 -0.0018083391 -0.0024925424
GCAGACAACCTTCCTGCCCTCGCAAGCGGGACGCCGGGCGCGGCCCGAGGACCTTCCCTCCGCACAGAGACGGCCTATAGCGCGGGGAGCCAGAGGGGCCA 0.0013333214 -0.0008907951 -0.0029961013 -0.0007263678 -0.0020438733 0.0025171817 -0.0045653 0.0044626812 0.0049045566 0.0028175048 -0.00070178765 -0.0048199818 0.0035860694 -0.000907099 0.0007821167 -0.004457273 0.00066970626 0.0047983937 0.0035136766 -0.0012345155 -0.002590047 0.0029981167 -0.0027580291 0.00028977316 -0.002646856 -0.0011987678 -0.0019558088 0.0036589652 0.0045265025 -0.0025949255 -0.0030796605 -0.004882425 -0.0020407613 0.0034462174 0.0041506174 0.00461822 -0.0004025716 0.0015622432 0.0042499434 -0.0028947555 0.0036240248 0.004239649 -0.0004043091 0.0028064027 -0.0032152727 -0.0042054444 -0.0009668446 0.0012219779 0.0010220561 0.0016373129 -0.004531862 0.0020295363 -0.0002167136 -0.0010607182 -0.002342545 -0.0013223048 -0.0011151684 0.0026237878 0.00023275189 -0.0032266055 -0.0007026325 0.0023769364 0.0034919798 -0.004204965 -0.00095292047 -0.0014757613 -0.0032649795 0.0019915565 0.0033283776 0.0022605502 -0.0034078858 0.00095644145 -0.0033479459 0.0014876906 -0.000552253 -0.0028343485 -0.00112729 -0.0025964507 0.0016842991 -0.0041204146 0.0027099159 -0.004687986 0.0029969758 0.0015022695 0.0020447404 0.0028084714 0.0020539763 -0.0033896915 0.0025536392 -0.0034512829 -0.0021523456 0.00070366106 -0.0013243196 0.0010718007 -0.003826194 0.0002185021 -0.0028715197 -0.0026023064 -0.0027676588 -0.0042620255
ATTCCCCACACCGGCCTTCCCCCTGCCGCCAGCCGCGCCGCTAAACTCCTCCTACCCCCGCCCCGGCCGAAAGCGGGCACGCAGCGCCCCCATCTCCGGCG -0.00041454608 -0.003254805 0.0025780988 0.0031487034 -0.002915539 0.003178492 0.0010685202 0.0031054723 -0.001125287 -0.003073118 -0.0023952853 0.00043668004 0.002958819 -0.00097558746 0.004152101 0.0020368241 0.003612791 -0.002515525 0.0038085845 -0.00047173633 -0.0006122299 -0.0032611461 -0.0019973263 0.0016996383 0.00013082773 0.00040674664 0.002594953 -0.0007361624 0.0046603996 -0.004019896 0.0012224751 -0.00071776356 -0.0009694661 -0.0021741828 -0.0022134122 0.0025977453 0.001077047 -0.0011901972 -0.0012799602 -0.002212107 0.0046634404 0.0043299263 0.0014580928 0.0030882538 0.001487838 -0.004386914 0.003191127 0.0048175957 0.0031719124 0.0034782386 -0.0037208234 -0.0027908618 -0.00042814843 -0.0032554716 0.0028824261 0.0014031702 -0.0013046262 0.0012373527 0.0027955312 0.0008698931 -0.0031447827 -0.0017024562 0.0042838263 0.004291853 -0.0044511077 -0.003908681 -0.003536151 -0.0032333639 -0.002258876 -0.0048753647 -0.0033062247 0.0016215637 -0.003158511 -0.00016056473 0.0044435146 -0.003081889 -0.0019410934 -0.00015281461 0.0038521558 -0.0010633473 0.0043219393 0.0012710819 0.0034810023 0.004404661 0.0044207666 -0.0010966922 0.003734095 -0.0048247054 0.0021290209 -0.0006765156 -0.004681096 0.0014566105 0.00035475104 -0.0012668743 -0.0022599667 0.0036040647 0.0021502208 0.0040291417 -0.0023306913 0.00032742674
TTACCTTGGTTCCTAGAACCTCTCAGGACCAAGGTTCAGGACGGCTGGGGCTGAGGGCTGCACTAAAGCGACCTGCCAACTAACAGCACAGTGACAAATTC 0.0018926385 0.003409726 -0.00033230206 0.0019889206 0.00017210671 -0.0030021055 0.0012610727 0.0015717837 0.0011418496 -0.004728738 0.0005723168 -0.0036332533 -0.0008375364 -0.0041921996 -0.0015587029 -0.004596271 -0.003602531 0.0023131764 -0.00049891113 0.00076708564 -0.003115999 -0.0047347927 0.0034909514 0.0027185888 0.0032855049 0.0039513553 0.0029421672 -0.0009387958 0.003197737 0.003680596 0.0011470082 0.0036893701 0.00039187484 -0.0012022121 0.0035573503 0.0033780157 -0.004029947 0.0013457148 -0.0006896393 -0.0023173378 -0.0005586851 -0.00091293047 0.0043392014 -0.0012313585 -0.0012614 0.002065561 0.002725405 0.0046448237 -0.0020675068 -0.00161639 -0.0015981144 0.0015656145 0.0017344487 0.0035880038 -0.0017549235 -0.0018381546 0.0039531956 0.0006525368 -0.0017992996 -0.0010607494 -0.00020468466 0.003580565 -0.0013817583 0.004109638 -0.0041108383 0.00034223308 -0.004586929 0.0030237904 0.0035751709 -0.0023968064 5.312232e-06 -0.0018564153 -0.0046784524 0.0029108832 -0.0023288403 -0.0036325199 -0.0034731557 -0.0016857497 0.00075610884 -0.004421213 -0.0049776975 -0.0015999 0.0002732993 -0.0024107276 0.0022778278 -0.0045480076 0.004419214 0.0024723066 0.0015103152 0.002638738 -0.0033832325 -0.0007964252 -0.0022112592 0.004999704 0.0013533698 -0.0022496684 0.0007390312 0.0010117609 -0.003356006 -0.0007143743
TTTAATGGGGACAGTTACGGATGATCTTGTTAGGCAGCCGTCATCCGGCTCTCTGAGTGAATAGTATCCGCAGCTTGCATTCGAAGGTGTCCCAAGTAAAT -0.0017857555 0.0034151585 0.0020571249 0.0008934818 0.0013131426 0.0042564273 -0.0014824158 0.0032551219 -0.0020608194 0.0009735667 0.0011284978 -0.0032009298 0.0018527288 0.002102041 -0.0023945426 -0.00044883147 -0.0014456126 -0.0048974995 0.0017864853 -0.0046604043 -0.0020999273 0.0014866072 -0.0034352571 0.0015558291 0.00046021224 -0.0011474481 -0.0010976986 -0.0003024437 0.00025750214 -0.0012441057 -0.0011955072 0.00045487122 -0.0016870926 -0.00499445 -0.0025669814 -0.0027728893 0.00035609838 0.0038013915 -0.0013331093 -0.0037930359 0.0014879663 0.0030935993 -0.0016383901 6.820671e-05 -0.0036562136 -0.0028187719 -0.00084139034 -0.0010994291 0.0035715112 0.0041697375 -0.0014231063 0.0010215968 -0.0013454556 0.0010810541 -0.0043535293 0.0033505727 -0.0031412898 -0.004182053 -0.0040585967 3.8983453e-05 0.00052009866 -0.0014794321 -0.0037692555 0.0040318416 -0.0028480971 0.0013919134 -0.0048082178 -0.0047926437 -0.004955987 -0.0018740378 0.002321751 -0.001480368 0.0048240493 0.002288584 -0.0016750903 -0.0030950578 0.0013156657 -0.0031505867 0.0029394943 0.00129369 -0.0024674092 0.0046493174 0.0038891062 0.004072004 -0.004298883 -4.7089707e-05 0.0028626232 0.0027338974 -0.002767342 0.00012799364 0.0048584654 0.003619591 -0.0039544874 -0.0037288144 0.004001467 -0.0047063986 -0.0005646421 0.0022181887 0.0013046103 -0.0034262985
CAGCTTTCGTCTTTTCGAAGGTTTTGGCCGAGGCATTCTCTCGGGATCAAGTCGCCAGGTCGCAAAACCATTCGGCCTCACGCAGCCCATCGGCGCGCAAG -0.0047762576 -0.0011016822 0.0048912526 -0.0025432492 0.0017597673 -0.004882038 0.00228108 0.003746699 -0.004501557 0.0025621678 0.00043000883 -0.0020617272 -0.0041144188 -0.004866552 -0.002980467 3.0649608e-05 -0.0028440098 -0.00029470335 0.0013417426 -0.0030495145 -0.004582212 0.0028436927 0.00034201314 -0.00033102132 0.004525451 -0.004211982 -0.0011203367 0.002988236 0.0031251314 -0.0040724576 -0.0032172399 0.0031495346 0.0046906946 0.0010312246 4.1837648e-05 0.00449421 -0.0008980798 0.0011354156 0.0031303156 7.568103e-05 0.0030073537 0.002605109 -0.001354384 -0.0029427344 -0.0003113363 -0.0043296893 -0.0036055688 -0.0013327877 -0.00045939305 -0.0028639694 0.0049169003 0.0049007447 0.002907452 -0.0049009947 -0.0038772256 -0.0003180665 0.00034118394 0.0020670663 -0.002008172 -0.001136587 0.0023907206 0.002003716 -0.0025863084 0.0030591516 0.002058069 0.004750116 -0.004522242 0.004426369 -0.0020720882 -0.004480204 -0.0049205795 -0.00033699756 -0.0038555658 -0.0048628068 -0.003443018 0.0033220476 0.0018099366 0.00028829882 -0.0020730565 -0.0012968753 -0.0015562354 -0.0033953674 0.0042475522 -0.0029900123 -0.0006762902 0.0023742525 0.00010392471 0.0009168001 0.0034554703 -0.0015983605 0.0014858635 -0.0038299775 -0.00061112974 0.0014662436 -0.0037082895 0.00024025587 0.004162676 0.0033411079 -0.002652528 -0.000831596
TCCACGCCCCCCCGGCGTAGATCGTCGTTCATACGGTGGGCCGGGACCGGGGTGGCCTCCACCTCCCGCACTGACACTACTGGCCGGCGAGCACACTCCTC -0.004654271 0.0034748414 -0.0025693355 0.0007716023 0.0037586559 0.0029453973 -0.00074322725 -0.0037041998 0.0038033524 0.004547688 0.0030381223 0.004696705 -0.0043025413 -0.00413814 -0.0023948387 0.0047742003 0.0025981232 0.00091919035 0.0007730758 0.004704546 0.0025799922 0.0019185347 -0.0015961834 0.0021938274 -0.002701389 -0.0037784874 0.000438012 0.0036838793 -0.00043122214 0.0016210603 0.0012065069 -0.0011360095 5.565804e-05 0.0047183502 0.0016113692 0.0046200426 0.00034246774 -0.004220902 0.00094845664 -0.000645548 0.0021246837 -0.0023254694 0.001243648 0.0022554756 -0.0016572945 -0.0022016147 -0.002307685 -0.0042872373 0.0020327356 0.003149477 -0.0043195756 0.0019253296 0.0046548955 -0.0037588528 -0.0005603277 0.0024311838 -0.00083283446 0.0011846937 -0.0020031398 0.0026160812 0.0035956432 -0.0035610597 -0.004796195 0.0005230312 -0.0047563575 -0.0035841179 -0.0015866965 -0.0001165401 -0.0014416759 0.002098624 -0.0019212993 0.0016770674 0.00326799 -0.0028762198 0.004829895 -0.004860038 0.0034039156 -0.004989668 0.0036249969 -0.0018656114 -0.00290564 0.004203938 0.0029822113 0.0029052012 -0.0037187543 -0.0013591619 0.004399079 0.001144154 -0.0047582723 0.00044361834 0.0016876938 0.0045526526 -0.00023862609 -0.0036118326 0.0015648899 -0.0038522494 0.0004213935 -0.0041361777 -0.00035168792 0.003235404
GGAGAAGTGGGGCCAGGGGTCAAGCCTTAGCAAGTTCCTGAGCCAGGCCTCCCTGCCTCCTGGGCCAATCCAAACAAGTGAAGACCTGCAGGTCTGGGGAG -0.003911051 0.0039279815 -0.0041033225 -0.0009760264 0.0041324887 5.986268e-05 -0.00075173395 0.0013602473 0.0045300624 -0.0019114972 0.0019492799 -0.004427409 0.0016723842 0.0027836224 -0.0029879154 -0.0013105002 -0.0011891145 0.0006496836 -0.0034988287 0.0016729097 -0.0016862326 -0.0029643155 -0.0028420181 0.003381933 -0.0016092983 -0.004249447 -0.004815574 -0.0008034836 -0.0010227925 -0.002480036 -0.0037486597 -0.0010851457 0.0037338955 -0.0004123075 -0.0037798334 0.004603995 0.0012440472 0.0047719697 -6.929807e-05 0.0027986679 0.0019982888 0.00082952564 -0.0013602909 -0.0026083656 -0.001386792 -0.0034920168 -0.0023020753 0.0010300245 0.004312816 0.0012089254 0.002949198 -0.0036510506 0.0022381172 -0.0022203303 0.0012442038 -0.0014256664 -0.00013686938 -0.0029527934 0.0037269266 0.0025832811 0.0014253716 0.0011879631 0.003703523 0.0011967185 -0.0018223294 0.0035411026 -0.0024301594 0.002433231 -0.004055891 -0.000770889 -0.00014298262 -0.002557936 -0.0027304846 0.002324282 -0.0011548618 0.00016657538 -0.0028370747 -0.003209106 -0.004758551 0.001149121 0.0047447253 0.0008596176 0.0029000111 0.0043169768 -0.00043000333 -0.0028988281 -0.003970863 7.471091e-05 -0.00088039396 0.0012162924 0.0029251347 -0.0006547434 0.002020773 -0.0040913722 0.0036878334 -0.0034008794 0.003915427 -0.0034682779 0.0029986592 -0.00018261424
TGCAATTATTAGAGGCAGTGTGGAAGCCCCAGAAGATGGCAGTCACGCACTGCAGAGGACACCAGTGAACTCCTACTACAGTTGCTTTAGGGAACTCCTGA 0.0041863993 0.0037728364 0.0043559545 0.0028409972 0.0025216395 -0.00016658378 0.004124359 -0.0023174793 3.111561e-05 -0.0016751917 0.0012681525 -0.0015315788 0.0017733229 0.0026744048 -0.0005667149 -0.0014553297 -0.0010089539 -0.0047775744 0.0039269393 0.00040312426 0.0045417543 -0.0008857289 0.00030886717 0.0042196787 0.0002896344 -0.0019171335 -0.004099012 3.1561973e-05 -0.0034275532 0.0035259717 -0.0038979854 -0.0027442733 0.0012885297 -0.0024897258 -0.0038036085 -0.0029152771 -0.0025009657 -0.0013022491 -0.0024975284 -0.0012692205 -0.0011661553 -0.00215969 -0.0037401912 0.001163949 -0.0011904788 0.0033077032 -2.7815415e-05 -0.0049051708 -0.0012756692 -0.0034859676 -0.0010591161 0.0049456637 0.00045140463 -0.0008981754 -0.004186209 0.0021147288 0.0031236846 0.0014060403 -0.0029743 0.0007968711 0.004686841 0.0008889568 0.0043096356 0.00266321 -0.004977895 0.0020159462 0.0011165852 0.004817615 -0.0019075806 0.00012452526 -0.0014851048 -0.004787382 -0.00039346967 0.0017340707 -0.003676016 -0.00055354595 0.0028786925 0.0026481021 -0.0029333709 -0.0019402058 0.00084394315 -0.00079433597 -0.001506651 -0.002672627 -0.0012702411 -0.0014025398 -0.0020050353 -0.004302756 -0.0045091 0.00078343594 -0.0005342868 0.0017549155 -0.0020552117 0.00072655117 -0.00046890526 -0.0014574777 -0.004946271 0.003095204 0.0013167723 0.002989546
GACTGATGCATCTGTCAATTTTTACTCAGGGTTCACTTCTGCAATACCAATGTTCAACTGTGGACACTTGATGCGAATAATCATACAAAAAGTGGATACAC 0.0017275261 -0.0033575278 -0.0012174201 -0.0017413872 -0.0033716322 -0.0044892295 0.004837775 -0.001571026 -0.00045498004 0.003223749 0.00456848 -0.0015052633 0.0018950491 0.0011323149 -0.0006471781 0.0020221253 0.0010471327 -0.0019205828 -0.0018941588 -0.004502606 -0.0007161831 0.0012885744 0.0033638803 -0.002198292 0.0040765833 0.0049433713 0.0044193924 0.00012751776 -0.004054509 -0.0028475388 0.0037196283 0.004631387 -0.0035301554 0.0017390506 0.0020568583 -0.0011844115 0.0020953596 -0.0007985393 0.0036582502 0.00033212636 -0.00025593457 -0.002317586 0.0008611166 0.003358188 -0.0031480258 -0.0009501883 -0.00056728907 0.0030109605 0.0049045235 -0.0030635744 0.0042455527 -1.4426638e-05 -0.004413413 -0.0030865744 0.0028150668 0.0021990065 0.0003942903 -0.004801915 -0.004294828 0.00088520144 -0.004190428 0.001153534 0.0014864563 0.001885265 -0.0009906199 -0.0027884447 0.0026968808 -0.004395699 0.0023481462 -0.0037846111 -0.0017149573 -0.0020577156 0.002413879 -0.0024937773 -0.0037180032 0.003273724 -0.0014519041 -0.00016649712 0.0035297205 -0.004077835 -0.0023672506 0.0006736979 0.0018510111 0.0019175259 -0.0013292294 -0.00259402 -0.0030847725 -0.002287853 -0.004123428 -0.0013493784 -0.0007477975 -0.0032134934 -0.002578912 0.0017681553 -0.0028642954 0.0040294137 0.0047514164 -0.0010953028 0.004850839 -0.0043964214
GCAATCAGACAACGCCTCATCCTAAGACTGTGCAGCCTCACACAAGGCTTACAGCAAAGGAAAAGAATCCGCACATAAGGTCAGGGACAGGTCCGTTCAGT -0.0014970335 0.0030440737 -0.0015770781 0.004045453 -0.0036415933 0.0046146633 -0.0046123737 -0.0014592638 -0.0031812736 0.001735676 0.0042168237 0.0034377929 0.0043958384 0.003822344 -0.0021489926 0.0034633896 0.0006526164 -0.0030781073 -0.00057885796 0.0047716037 -0.0010526158 -0.00409581 -0.0022856079 0.0013049103 2.9318078e-05 0.002023535 0.0028400787 0.0041762996 -0.002958489 0.002674921 -0.0034931472 -0.002971775 0.0031909607 0.0022722748 0.003984438 -0.004946579 0.0045293896 -0.0022900063 0.0044201897 -0.0045556608 -0.002942006 -0.00036006336 0.0044608302 -0.00013314973 0.0015624736 -0.003358659 -0.002241469 -0.004722235 0.0044309576 -0.0026821562 -0.00097598357 0.004269687 0.0010101813 0.0040663243 0.004111508 0.004076923 -0.000899982 -0.0033492143 0.0019652273 -0.0038782468 -0.0021190343 0.0036397602 -0.0006051943 0.0040691392 0.003447268 -0.003956354 0.0041975016 0.003612623 0.0046734316 -0.00327195 0.0033386901 -0.002184856 0.00024287596 -6.916757e-05 0.0035083084 -0.001270243 -0.0025254393 -0.001007787 0.002276166 0.0014075222 0.0014168451 -0.00049936667 -0.002868127 0.004535751 0.003089513 0.0023233404 -0.0016096473 0.003431968 -0.0040392634 -0.0015430396 0.00020038072 -0.0015502614 -0.00037879223 0.00035947468 -0.0019981242 -0.0016109708 0.0024550436 -0.0013959742 0.0040078936 -0.002144108
CCGCCGGAGCCAGCCCGACAGACTCCTGGATCCTCGCGGCGTTCACCCCGGGGTCCCAGGGCCCGGGAGTGGGAGCAGCAGAGCAGTCCACGGGCAACTCC -0.0023855423 -0.0003916148 0.0024393895 0.0010355896 -0.0012559304 -0.0038849774 -0.0019702874 0.0013608189 0.004148755 -0.0020215688 0.0010709016 -0.00405899 -0.001914219 -0.0009799503 0.0039303536 0.002015168 -0.0043627038 0.00017147692 -0.0040750788 -0.0028798664 -0.0030571749 -0.0009796716 -0.0029952754 0.0004446077 -0.0024169912 0.0014861935 0.0041926885 -0.0002921608 -0.0010286605 -0.0028458962 -0.0038703121 -0.004989287 0.004474975 0.003761853 0.0006880413 -0.0010139133 0.000453571 -0.0027260561 -0.0014489734 0.0030242873 -0.00041765106 -0.0008397714 -0.0039000637 -0.0026550952 0.0043742927 -0.0044172355 -0.0046479283 0.002451966 -0.0038195772 -0.0031981417 -0.0010672045 -0.00011257087 -0.0048373933 -0.0035249046 -0.0028923287 -0.0030013563 0.003287364 -0.004473081 -0.00071789685 -0.0012936767 -0.00023494607 0.0045209313 0.0047273366 -0.0038680302 -0.0040814746 0.00011773335 0.004488165 0.004708497 -0.0012830064 -0.0029038708 -0.002741095 0.0036944877 0.0039646686 -0.0008237953 1.29116725e-05 0.004271818 -0.0006000922 0.0005630203 0.0047016824 -0.003844325 -0.000988141 -0.003810686 -0.0032895363 0.0029683092 0.0018105567 0.000744099 0.0024387115 0.0020305105 -0.0011968039 -7.0803944e-05 0.002144984 -0.0042132665 0.0039190874 -0.0009940325 0.0010471811 0.0010226764 9.214101e-06 0.00090427493 0.0009737943 0.00092514476
GAAGCTTTACACCACCAACATTGAGGGTGAGGACGGAGCAGGAGGCGGTGACAGACCCGGGCCCCCAGAGGCTGGGGGCCTACGGGGGACGGGCGCACACT -0.0010679124 0.0021742724 0.002464891 0.0031012439 0.004127912 0.0031922904 -0.00035518815 0.002262772 -0.0025959634 -0.0014463422 0.004342306 -0.0037522383 -0.000881567 -0.004440988 0.004236969 0.00335064 -0.003871235 0.0014462641 -0.003143946 -0.0045140143 0.002550212 -0.0006353696 0.0013617746 0.004191168 -0.0048874454 -0.0023113908 0.0006038989 -0.0008198182 -0.0013124025 0.0027789627 -0.0019137198 -0.004793436 0.004138427 0.002405663 0.0047304886 0.0043474934 -0.00044092417 0.0028554916 0.00063803786 0.004994137 -0.0043442026 -0.0004895286 -0.0012814789 0.0015938063 0.0045632827 0.004053325 0.0011446131 -0.0025838432 0.00085299986 -0.0040604975 0.0044323984 -0.0032774964 0.004837814 0.0042655654 0.0019384759 -0.0031570755 0.0017663678 -0.0003343727 -0.003387239 0.0020830727 0.0027723468 -0.00012514886 0.004823061 0.000508918 -0.0024037503 0.00075225445 0.0034470696 -0.0019158676 0.0005708529 0.0026238863 0.003958147 0.003115094 9.198305e-06 -0.002490943 -0.002747235 0.0015541477 -0.0025545906 -0.0049288925 -0.0015361722 0.0040935753 0.00036249394 0.0011987776 -0.0008653811 -0.0032405953 0.0030729403 -0.001456414 0.0004930353 0.0029494849 0.002188713 0.000116311465 0.002988803 0.0047947145 -0.0040211277 0.0030817578 0.0038679754 0.0033578791 -0.0023742463 -0.004635519 0.0011032565 -0.002432352
AACTCAACTAGATGAAGTCTCACATGCACTAATTATCTTATTCAAGCTTGGCTGCCCCTGACTAGCCCAGTGTCCACACCTACCTGAGGCTGTTCCAAGCT -0.002448663 -0.0036256833 0.0015825948 -0.0018238982 0.0032209447 -0.0017764538 0.001213094 0.003272739 -0.0031680793 0.004058631 -4.9106653e-05 0.004458299 0.001602373 0.00014754976 -0.00063063554 -0.0039009466 0.0019734416 0.003235742 0.004973032 -0.0019818838 0.0028415765 -0.0022339297 0.0037158518 -0.0017256283 -0.0038404975 -0.0017629078 0.0015575524 -0.0039695953 0.0013283088 0.00037672324 0.0046371315 -0.0027400574 0.004965684 0.0037971023 -0.0027449024 -0.0029351325 0.0040394748 -0.002526756 -0.00018884864 -0.0025836285 0.0041757775 -0.0013691812 0.0016455365 0.003174266 -0.0023835415 -0.0046182284 -0.0033819864 -0.00087760016 0.004219061 0.0004161248 -0.0022485359 -0.004973409 -0.0014122332 0.004793734 0.0039263642 -0.004082232 0.00147426 0.0034165157 -0.0027850473 -0.003984484 0.0047082664 -0.0009283192 -0.0011673496 0.0039280304 -0.0006462336 0.0045986334 -0.0032018179 0.0011084479 0.0028153313 0.0046378416 -0.001588367 -0.0029858926 0.0026434653 0.0047314717 -0.0013780923 0.004964114 0.0010102374 0.0027706646 -6.622439e-05 -0.0016381956 -0.0018247125 0.0019144427 0.0011524784 -0.003173634 0.0037210726 -0.0049416553 -0.004929521 -0.0030887553 0.0022500856 -0.0015402652 -0.0041163857 -0.0037291835 0.00012445121 0.0026778951 -0.0006453471 -0.0044663297 0.0010238156 -0.002274368 0.0014384858 -0.00044946023
ACTTTCCGATAAAAACTTGGGTGAGGCGGATCGACGCACTTGACGGGTGAGGGCTCAGACGAGAGCAATCATCTTCCTTGCGCTGATGCTGGGTAGAGCCG 0.0024065117 0.004978647 -0.0025670312 -0.0049662148 0.0048511955 0.0049245637 0.0030193676 -0.0047668917 -0.001576127 0.004943785 -0.0032290483 -0.0009887299 -0.004895979 0.004627813 -0.0033187312 -0.0004773293 -0.0021480909 0.0039028 -0.0013974769 0.0029280828 0.0038064842 0.004650206 -0.002504706 0.0037056734 0.0032190792 0.0009958409 0.003779255 0.0010535162 0.003362046 -0.0024237386 0.004036348 0.0033473538 -0.004433984 0.0010102611 0.0015862458 0.0026269213 -0.0036257089 -0.004381348 0.0035388642 0.00021270289 0.004013754 0.0025670861 -0.002598913 0.002465746 -0.0033713141 -0.0027813765 0.0037767526 -0.00092536764 -0.0027108274 -0.004733939 -0.0047801384 0.002026388 0.0034641018 0.0004547446 -0.00251526 -0.0009340556 0.0026559662 0.004689449 0.003422973 -0.0042928443 -0.0033091097 0.0005005161 -0.0009256525 -0.0045532687 -0.0032211253 0.00022875587 0.0045071463 0.0013469884 0.0006358912 0.0032098775 -0.0040397616 0.0046033487 0.0036974512 0.0043773553 0.0016734415 -0.0035508676 0.004288318 -3.2751588e-05 -0.0032776224 0.0042083818 0.0015829718 0.0025035788 0.00018363238 -0.0027205828 0.0018881297 0.0045268512 0.0045487355 0.0007979861 0.0010301314 0.0021903408 0.0031676115 0.0012424357 -0.0032642265 0.004472089 -0.002077899 0.0018530758 -0.003770469 0.0027897244 -0.002148503 0.0032514944
CAGGATAGAATTCTTCTTTCTTCTATGGTTTACATGAAAGCTGCTACATTTGAAGTTTGCATTTCTTTGGTCCTGATGTTGTGATGGATTTTTCTAGTAAT -0.0035717732 -0.0010233697 0.0033616358 0.000930173 0.0028613114 0.0033962724 0.0004483037 -0.0031168698 -0.0017217008 -0.003298635 -0.0015247678 -0.00091080455 -2.7265054e-05 -0.0033578565 0.0008160216 -0.0031975517 -0.00082119665 0.0033426424 -0.0015859237 0.004264161 -0.003777638 -0.004498742 0.0015629648 -0.00013718764 0.0045904852 0.004128689 0.00022187247 0.0008739433 -0.003860788 0.0047466327 -0.00016179292 0.004150506 -0.00047129465 -0.002187273 0.0027136721 -0.0011029235 -0.0029132946 -0.004237958 0.00054316083 0.0004406716 -0.0013431554 0.0023538738 0.0009238364 -0.0042168745 0.003424328 -0.0032288253 0.0011715465 3.513822e-05 -0.00018728878 -0.0041698953 0.0047962987 -0.0005415238 5.615424e-05 -0.0046904376 0.0007844814 -0.002321831 -0.00020481742 -0.0006635021 -0.0044385353 -0.0016952433 -0.0014818705 0.003917461 -0.0032035317 0.0033017232 -0.0042921603 0.003030557 -0.0039030055 -0.0038706332 -8.714831e-05 0.003363815 0.0035410547 -0.0030373286 -0.001969509 -0.0049421317 -0.0046808757 0.0026557122 -0.0009653816 0.002020291 -0.0025073315 0.00011339884 0.003722968 -0.0032420862 -0.0034203555 -0.00090539106 -0.0012926419 -0.00094834185 0.0001472597 0.00014676843 -0.0035544524 -0.0006961465 0.00046096585 -0.00021096345 -0.0045902357 0.0029332414 0.001367797 -0.0012072938 0.00066882913 0.00031865767 -0.00046807984 -0.0014897867
CCTCGAGTCACGTCGTCCTACTAAGGAGTTGGGCCGCAGCGCCCCGCGCCGGTCTGACCCGGAATGCCTGCTCGCCGCGGTAGGCCGAGGACAGGCGGGGC 0.004399609 -0.0019824237 0.004080524 0.0009770708 -0.00042392398 -0.003566364 0.0025170257 -0.0031965997 0.0047185994 -0.001844572 0.00023243845 -0.0040874765 -0.003519806 -0.0030708048 -0.0043568853 0.003927583 -0.002023957 0.0010870323 -0.0018973636 0.0013866208 -0.002707206 -0.004146456 0.0023694513 -0.0010738097 -0.003424906 -0.0028419155 -0.0040840562 0.0029496383 -0.0028170603 -0.0006974778 0.0014381391 0.0030219795 0.0021834176 -0.0010375255 0.0040211393 -8.587489e-05 -0.0031364865 0.0047950936 -0.0035597368 -0.0024330327 0.0012347094 -0.0030205825 -0.0022782546 0.00472901 0.004199357 -0.00010887426 0.0034991114 0.0032664568 -0.0049169883 -0.0009740205 -0.0043239873 -0.0016345466 -0.0037298535 -0.0014795708 -0.003083317 0.0044882167 0.0047448655 0.0032273442 -0.0033852365 -0.0034005193 -0.0020521802 0.0040102275 0.0042088237 0.0028158722 0.0008961259 -0.001231272 -0.0021446387 0.0027067398 -0.0034285598 0.004338547 -0.001783953 0.00040699373 -0.0039132256 -0.0014486944 0.0038906028 0.0029464867 -0.0037513366 0.0014049786 -0.0026758886 0.0029232015 0.001810444 -0.0023642085 0.0034070513 -0.0031580718 0.0027213737 0.004335143 0.0007647916 0.003430121 -0.0025127258 0.0030239595 -0.00086008635 0.0008637444 0.00073205354 -0.004383052 0.0031560534 0.003753032 -0.004150061 0.002864712 0.004828412 0.0012142919
CCGACCGCACGGATTGGCCAAGCTGACTCTCGCGGCTCTCGTGAGAGTCACTCTCTCGGGCGGGCTGGTTGGGGGGAACGGGAAATTAAAGTTCCATTTCC 0.0046068095 -0.0004324152 -0.001789473 0.0028945864 -0.0043999543 0.002009279 -0.0010769282 0.0022889588 -0.0030334594 0.0029212127 0.0032896567 -0.0016032202 0.001868294 -0.0046822676 -0.00075803185 0.0029508297 -0.0022108904 -0.0013955988 -0.0027221888 -0.0022830332 -0.00047851633 -0.00025275606 -0.0007993861 0.00333636 -0.0008007894 -0.0010674567 -0.0019000483 0.003909016 -0.00020890987 0.0016357042 0.004757586 0.0009376612 0.0014744883 0.004005897 -0.0005692952 -0.0007396996 0.0002253729 0.0030350445 0.0012679276 0.0027375782 -0.0018969573 -0.0048542703 -0.004688341 -0.002740564 0.0047069094 0.0032060766 7.0239796e-05 0.0016071941 0.002787161 -0.0012482007 -0.0031310017 -0.004802764 0.00414235 -0.0017101325 -0.0012867328 -0.0025674698 0.0015702964 0.0001344303 -0.0031659137 -0.0020049207 -0.0016429484 0.0042472268 -0.003018476 5.732442e-05 -0.00275206 0.0027439261 -0.0032334493 -0.0026919695 -0.001160036 -0.00088059873 -0.0034943044 -0.0043613045 -9.59864e-05 -0.0047555747 -0.0014177336 0.0038844883 -0.0012988021 0.0003343561 -0.00065129466 -0.002676845 0.0020630262 -0.0011512301 -0.0004292726 0.0024059492 -0.0046031447 0.0012677808 0.0025952333 0.0042762426 -0.0047669155 0.002914081 0.0031359298 -0.002784895 0.0042891027 -0.00173409 0.0019295459 -0.0045961533 0.00350222 -0.00014585281 -0.00425964 0.00010643897
